{"learner":{"attributes":{"scikit_learn":"{\"_estimator_type\": \"regressor\"}"},"feature_names":[],"feature_types":[],"gradient_booster":{"model":{"gbtree_model_param":{"num_parallel_tree":"1","num_trees":"100"},"iteration_indptr":[0,1,2,3,4,5,6,7,8,9,10,11,12,13,14,15,16,17,18,19,20,21,22,23,24,25,26,27,28,29,30,31,32,33,34,35,36,37,38,39,40,41,42,43,44,45,46,47,48,49,50,51,52,53,54,55,56,57,58,59,60,61,62,63,64,65,66,67,68,69,70,71,72,73,74,75,76,77,78,79,80,81,82,83,84,85,86,87,88,89,90,91,92,93,94,95,96,97,98,99,100],"tree_info":[0,0,0,0,0,0,0,0,0,0,0,0,0,0,0,0,0,0,0,0,0,0,0,0,0,0,0,0,0,0,0,0,0,0,0,0,0,0,0,0,0,0,0,0,0,0,0,0,0,0,0,0,0,0,0,0,0,0,0,0,0,0,0,0,0,0,0,0,0,0,0,0,0,0,0,0,0,0,0,0,0,0,0,0,0,0,0,0,0,0,0,0,0,0,0,0,0,0,0,0],"trees":[{"base_weights":[-1.749636E-6,-1.6979842E0,2.2577386E0,-2.9933314E0,-2.3518188E-1,9.7119534E-1,3.7583928E0,-4.269255E0,-1.8877103E0,-1.6126499E0,5.4028213E-1,-6.5998495E-1,1.4974134E0,2.899377E0,4.678127E0,-5.2834735E0,-3.4617581E0,-3.3759048E0,-1.4040048E0,-2.1247973E0,9.227939E-2,-2.4073776E-2,1.9244405E0,-1.9910197E0,1.7098257E-1,2.754383E-1,2.0634944E0,2.3644474E0,4.146159E0,3.411817E0,5.4863544E0,-6.0382667E0,-4.5595794E0,-4.246392E0,-2.7365563E0,-4.4775133E0,-2.8733275E0,-2.0078778E0,-8.7418437E-1,-2.6446564E0,-1.145024E0,-9.927952E-1,5.939935E-1,-2.6418474E-1,1.5425115E0,9.1443866E-1,2.5586376E0,-2.5920315E0,-1.239043E0,-3.58738E-1,9.7041124E-1,5.2917622E-2,2.667644E0,1.2781148E0,2.7089872E0,1.0726532E0,2.9426703E0,8.780941E0,3.9426253E0,2.200455E0,3.9188764E0,4.9050846E0,6.5843415E0,-6.45189E-1,-4.7916412E-1,-5.0916183E-1,-2.804231E-1,-4.500818E-1,-2.7859062E-1,-3.0141458E-1,-1.1374922E-1,-5.081299E-1,-3.332356E-1,-3.140966E-1,-1.77052E-1,-2.1779697E-1,-3.8744178E-2,-1.2937751E-1,-1.6926108E-2,-2.9106456E-1,-1.4615877E-1,-1.694559E-1,2.4370098E-2,-2.0709372E-1,-1.1455848E-2,3.2314222E-2,1.6910587E-1,-7.117972E-2,4.1240986E-2,5.302847E-1,1.342706E-1,4.654151E-2,2.3730822E-1,7.792249E-2,2.9436663E-1,-2.802119E-1,-5.1103212E-2,-2.7892184E-1,-9.014737E-2,-9.3063846E-2,3.9555516E-2,4.3449212E-2,2.1398628E-1,-8.074722E-2,5.1703192E-2,5.519988E-1,1.2517332E-1,4.5812797E-2,1.7277394E-1,2.0649162E-1,3.4985766E-1,5.4702282E-2,1.7049602E-1,2.4820104E-1,3.4665745E-1,1.5868565E0,4.1897035E-1,3.3291194E-1,5.5972E-1,2.3248437E-1,-2.6314354E-1,3.6570016E-1,9.1142744E-1,5.026336E-1,7.746822E-2,5.120749E-1,7.589042E-1],"categories":[],"categories_nodes":[],"categories_segments":[],"categories_sizes":[],"default_left":[0,0,0,0,0,0,0,0,0,0,0,0,0,0,0,0,0,0,0,0,0,0,0,0,0,0,0,0,0,0,0,0,0,0,0,0,0,0,0,0,0,0,0,0,0,0,0,0,0,0,0,0,0,0,0,0,0,0,0,0,0,0,0,0,0,0,0,0,0,0,0,0,0,0,0,0,0,0,0,0,0,0,0,0,0,0,0,0,0,0,0,0,0,0,0,0,0,0,0,0,0,0,0,0,0,0,0,0,0,0,0,0,0,0,0,0,0,0,0,0,0,0,0,0,0,0,0],"id":0,"left_children":[1,3,5,7,9,11,13,15,17,19,21,23,25,27,29,31,33,35,37,39,41,43,45,47,49,51,53,55,57,59,61,63,65,67,69,71,73,75,77,79,81,83,85,87,89,91,93,95,97,99,101,103,105,107,109,111,113,115,117,119,121,123,125,-1,-1,-1,-1,-1,-1,-1,-1,-1,-1,-1,-1,-1,-1,-1,-1,-1,-1,-1,-1,-1,-1,-1,-1,-1,-1,-1,-1,-1,-1,-1,-1,-1,-1,-1,-1,-1,-1,-1,-1,-1,-1,-1,-1,-1,-1,-1,-1,-1,-1,-1,-1,-1,-1,-1,-1,-1,-1,-1,-1,-1,-1,-1,-1],"loss_changes":[2.026443E4,5.7160195E3,4.377009E3,2.249042E3,1.5155461E3,1.0507583E3,8.136367E2,5.893916E2,6.1360913E2,4.4638855E2,7.0933777E2,3.310484E2,6.392883E2,3.530127E2,4.971084E2,1.511377E2,2.2509082E2,1.0340015E2,2.0620862E2,1.9714404E2,6.5372986E1,2.4340317E2,1.6612244E2,4.8762238E1,7.869078E1,1.5635953E2,3.1693433E2,2.8292334E2,1.1820068E2,1.1360913E2,1.63E2,5.0039062E1,1.4542114E2,6.1035156E1,9.378186E1,2.7318726E1,3.7826294E1,8.266992E1,1.0271219E2,7.630469E1,1.057281E2,3.574358E1,2.381915E1,1.7019363E2,5.7494675E1,6.635696E1,1.0801123E2,2.6111084E1,2.5220062E1,4.8682743E1,4.5448364E1,1.08233665E2,9.405705E1,1.0502136E2,1.6873462E2,3.8950516E1,5.5110107E1,1.287612E2,1.4073535E2,4.27807E1,1.5578467E2,9.827246E1,1.1259668E2,0E0,0E0,0E0,0E0,0E0,0E0,0E0,0E0,0E0,0E0,0E0,0E0,0E0,0E0,0E0,0E0,0E0,0E0,0E0,0E0,0E0,0E0,0E0,0E0,0E0,0E0,0E0,0E0,0E0,0E0,0E0,0E0,0E0,0E0,0E0,0E0,0E0,0E0,0E0,0E0,0E0,0E0,0E0,0E0,0E0,0E0,0E0,0E0,0E0,0E0,0E0,0E0,0E0,0E0,0E0,0E0,0E0,0E0,0E0,0E0,0E0,0E0,0E0,0E0],"parents":[2147483647,0,0,1,1,2,2,3,3,4,4,5,5,6,6,7,7,8,8,9,9,10,10,11,11,12,12,13,13,14,14,15,15,16,16,17,17,18,18,19,19,20,20,21,21,22,22,23,23,24,24,25,25,26,26,27,27,28,28,29,29,30,30,31,31,32,32,33,33,34,34,35,35,36,36,37,37,38,38,39,39,40,40,41,41,42,42,43,43,44,44,45,45,46,46,47,47,48,48,49,49,50,50,51,51,52,52,53,53,54,54,55,55,56,56,57,57,58,58,59,59,60,60,61,61,62,62],"right_children":[2,4,6,8,10,12,14,16,18,20,22,24,26,28,30,32,34,36,38,40,42,44,46,48,50,52,54,56,58,60,62,64,66,68,70,72,74,76,78,80,82,84,86,88,90,92,94,96,98,100,102,104,106,108,110,112,114,116,118,120,122,124,126,-1,-1,-1,-1,-1,-1,-1,-1,-1,-1,-1,-1,-1,-1,-1,-1,-1,-1,-1,-1,-1,-1,-1,-1,-1,-1,-1,-1,-1,-1,-1,-1,-1,-1,-1,-1,-1,-1,-1,-1,-1,-1,-1,-1,-1,-1,-1,-1,-1,-1,-1,-1,-1,-1,-1,-1,-1,-1,-1,-1,-1,-1,-1,-1],"split_conditions":[2.6054522E-1,1.5657587E-1,1.5657587E-1,-7.799291E-1,-9.533415E-1,-1.0190626E0,8.283693E-1,-6.831659E-1,-1.0190626E0,1.3322144E0,1.164266E0,8.6748856E-1,7.807824E-1,7.6346344E-1,8.6748856E-1,-7.200745E-2,6.72377E-2,-1.6908561E0,-7.200745E-2,6.242183E-1,2.7708095E-1,1.2508215E0,-2.8087518E-1,-1.3549594E0,6.72377E-2,1.5293118E0,-1.4163002E-1,7.807824E-1,-1.3758352E0,-6.986106E-1,6.9384086E-1,-1.0400476E0,1.6227571E0,1.2460527E0,1.2460527E0,-1.7298575E-1,1.876928E0,1.7383903E-1,1.0648023E0,1.2460527E0,-1.1267539E0,6.72377E-2,1.2460527E0,-2.5969195E-1,-8.666353E-1,1.8360595E0,-6.932229E-1,2.069176E0,-4.0019363E-1,-1.3549594E0,1.876928E0,-5.1521754E-1,-6.831659E-1,-5.1521754E-1,4.2292956E-1,-4.201203E-1,4.2292956E-1,1.0419537E0,1.3877257E0,2.8437495E0,2.6758013E0,3.0025513E0,8.2502216E-1,-6.45189E-1,-4.7916412E-1,-5.0916183E-1,-2.804231E-1,-4.500818E-1,-2.7859062E-1,-3.0141458E-1,-1.1374922E-1,-5.081299E-1,-3.332356E-1,-3.140966E-1,-1.77052E-1,-2.1779697E-1,-3.8744178E-2,-1.2937751E-1,-1.6926108E-2,-2.9106456E-1,-1.4615877E-1,-1.694559E-1,2.4370098E-2,-2.0709372E-1,-1.1455848E-2,3.2314222E-2,1.6910587E-1,-7.117972E-2,4.1240986E-2,5.302847E-1,1.342706E-1,4.654151E-2,2.3730822E-1,7.792249E-2,2.9436663E-1,-2.802119E-1,-5.1103212E-2,-2.7892184E-1,-9.014737E-2,-9.3063846E-2,3.9555516E-2,4.3449212E-2,2.1398628E-1,-8.074722E-2,5.1703192E-2,5.519988E-1,1.2517332E-1,4.5812797E-2,1.7277394E-1,2.0649162E-1,3.4985766E-1,5.4702282E-2,1.7049602E-1,2.4820104E-1,3.4665745E-1,1.5868565E0,4.1897035E-1,3.3291194E-1,5.5972E-1,2.3248437E-1,-2.6314354E-1,3.6570016E-1,9.1142744E-1,5.026336E-1,7.746822E-2,5.120749E-1,7.589042E-1],"split_indices":[2,0,0,2,2,0,0,0,0,0,0,2,2,1,2,1,1,0,1,1,7,1,1,0,1,1,1,2,5,1,1,2,7,6,6,2,4,2,9,6,2,1,6,2,2,0,2,6,6,0,4,0,0,0,6,1,6,1,2,0,0,0,3,0,0,0,0,0,0,0,0,0,0,0,0,0,0,0,0,0,0,0,0,0,0,0,0,0,0,0,0,0,0,0,0,0,0,0,0,0,0,0,0,0,0,0,0,0,0,0,0,0,0,0,0,0,0,0,0,0,0,0,0,0,0,0,0],"split_type":[0,0,0,0,0,0,0,0,0,0,0,0,0,0,0,0,0,0,0,0,0,0,0,0,0,0,0,0,0,0,0,0,0,0,0,0,0,0,0,0,0,0,0,0,0,0,0,0,0,0,0,0,0,0,0,0,0,0,0,0,0,0,0,0,0,0,0,0,0,0,0,0,0,0,0,0,0,0,0,0,0,0,0,0,0,0,0,0,0,0,0,0,0,0,0,0,0,0,0,0,0,0,0,0,0,0,0,0,0,0,0,0,0,0,0,0,0,0,0,0,0,0,0,0,0,0,0],"sum_hessian":[5.284E3,3.016E3,2.268E3,1.599E3,1.417E3,1.222E3,1.046E3,7.41E2,8.58E2,5.1E2,9.07E2,2.98E2,9.24E2,5.43E2,5.03E2,3.26E2,4.15E2,2.09E2,6.49E2,3.92E2,1.18E2,6.45E2,2.62E2,1.14E2,1.84E2,2.93E2,6.31E2,3.82E2,1.61E2,1.98E2,3.05E2,1.56E2,1.7E2,1.97E2,2.18E2,6.3E1,1.46E2,3.02E2,3.47E2,2.55E2,1.37E2,3.7E1,8.1E1,5.6E2,8.5E1,1.02E2,1.6E2,6.2E1,5.2E1,1.11E2,7.3E1,2.69E2,2.4E1,2.86E2,3.45E2,1.19E2,2.63E2,5E0,1.56E2,6E1,1.38E2,2.03E2,1.02E2,1.14E2,4.2E1,1.29E2,4.1E1,1.66E2,3.1E1,1.85E2,3.3E1,3.9E1,2.4E1,1.16E2,3E1,2.73E2,2.9E1,2.17E2,1.3E2,2.07E2,4.8E1,9.8E1,3.9E1,1.6E1,2.1E1,6.6E1,1.5E1,3.37E2,2.23E2,3E0,8.2E1,7.9E1,2.3E1,2.9E1,1.31E2,5.6E1,6E0,8E0,4.4E1,6.3E1,4.8E1,5.1E1,2.2E1,9.4E1,1.75E2,7E0,1.7E1,1.02E2,1.84E2,1.92E2,1.53E2,6.6E1,5.3E1,1.43E2,1.2E2,1E0,4E0,1.16E2,4E1,5.9E1,1E0,1.33E2,5E0,1.97E2,6E0,4.4E1,5.8E1],"tree_param":{"num_deleted":"0","num_feature":"11","num_nodes":"127","size_leaf_vector":"1"}},{"base_weights":[6.875088E-4,-1.5295451E0,2.0353773E0,-2.6969938E0,-2.1117589E-1,2.3156133E-1,2.9082303E0,-3.8464508E0,-1.7009587E0,-1.0816664E0,8.102741E-1,-7.856561E-1,8.763346E-1,2.262756E0,4.2164607E0,-4.760979E0,-3.1183329E0,-3.0446596E0,-1.2642232E0,-1.72137E0,-3.734816E-2,2.8204858E-1,2.0404632E0,-1.152414E0,1.2204458E0,-6.2185967E-1,1.1510624E0,1.1575538E0,2.748537E0,3.0768995E0,4.943769E0,-5.4416027E0,-4.1082373E0,-3.825434E0,-2.4647968E0,-4.0429063E0,-2.5893369E0,-2.033368E0,-9.0785784E-1,-2.6218948E0,-1.0957559E0,-5.474764E-1,8.368285E-1,-1.7120361E-1,9.165488E-1,9.382055E-1,2.7307413E0,-2.3646586E0,-7.87133E-1,-1.079921E0,2.5268524E0,-1.0061918E0,4.0849686E-1,9.759088E-1,3.261531E0,4.4961795E-1,2.0740716E0,2.1031668E0,3.29122E0,1.9799083E0,3.5361772E0,4.5984263E0,6.5055275E0,-6.576969E-1,-4.9556574E-1,-4.586372E-1,-2.5304818E-1,-4.053432E-1,-2.5160247E-1,-2.7143517E-1,-1.0270911E-1,-4.5858693E-1,-3.0124488E-1,-2.8920385E-1,-1.736205E-1,-2.2925292E-1,-7.946776E-2,-1.4617904E-1,-3.90602E-2,-3.2418275E-1,-2.0982277E-1,-2.5228402E-1,-6.986934E-2,-1.0583246E-1,1.16412275E-1,3.3724412E-1,6.277024E-2,-6.977301E-2,7.641959E-2,4.812987E-2,1.5016872E-1,1.0492368E-1,-3.750088E-1,1.755122E-1,3.1279695E-1,-2.583005E-1,-4.6723064E-2,-1.1581172E-1,-1.9495321E-2,-2.7369937E-1,-5.293345E-2,5.830869E-1,1.5955625E-1,-1.9666772E-1,-5.246796E-2,-2.5245616E-2,1.9927965E-1,4.0492807E-2,1.6728294E-1,1.5693635E0,2.2570406E-1,-3.983011E-2,8.3890066E-2,1.479381E-1,2.8351986E-1,1.754249E-1,2.7976823E-1,2.750274E-1,3.9113694E-1,2.0962356E-1,-2.4998628E-1,3.238823E-1,7.47142E-1,3.965961E-1,5.29376E-1,4.408319E-1,8.361791E-1],"categories":[],"categories_nodes":[],"categories_segments":[],"categories_sizes":[],"default_left":[0,0,0,0,0,0,0,0,0,0,0,0,0,0,0,0,0,0,0,0,0,0,0,0,0,0,0,0,0,0,0,0,0,0,0,0,0,0,0,0,0,0,0,0,0,0,0,0,0,0,0,0,0,0,0,0,0,0,0,0,0,0,0,0,0,0,0,0,0,0,0,0,0,0,0,0,0,0,0,0,0,0,0,0,0,0,0,0,0,0,0,0,0,0,0,0,0,0,0,0,0,0,0,0,0,0,0,0,0,0,0,0,0,0,0,0,0,0,0,0,0,0,0,0,0,0,0],"id":1,"left_children":[1,3,5,7,9,11,13,15,17,19,21,23,25,27,29,31,33,35,37,39,41,43,45,47,49,51,53,55,57,59,61,63,65,67,69,71,73,75,77,79,81,83,85,87,89,91,93,95,97,99,101,103,105,107,109,111,113,115,117,119,121,123,125,-1,-1,-1,-1,-1,-1,-1,-1,-1,-1,-1,-1,-1,-1,-1,-1,-1,-1,-1,-1,-1,-1,-1,-1,-1,-1,-1,-1,-1,-1,-1,-1,-1,-1,-1,-1,-1,-1,-1,-1,-1,-1,-1,-1,-1,-1,-1,-1,-1,-1,-1,-1,-1,-1,-1,-1,-1,-1,-1,-1,-1,-1,-1,-1],"loss_changes":[1.6458219E4,4.642981E3,3.57179E3,1.8252969E3,1.2617089E3,4.8669153E2,1.2815908E3,4.7924023E2,5.002483E2,5.1166522E2,4.2375516E2,2.1330351E2,1.8758017E2,5.476636E2,4.0251074E2,1.229209E2,1.8281152E2,8.498169E1,1.7631677E2,2.647329E2,1.3067326E2,1.318725E2,1.4656738E2,1.06184326E2,1.3796344E2,2.8526964E1,1.3876501E2,2.0345074E2,2.4244287E2,9.325952E1,1.3512305E2,5.4027832E1,1.1739307E2,4.891284E1,7.578638E1,2.1993286E1,3.2940735E1,6.3987366E1,1.27219086E2,5.6177856E1,1.5803027E2,1.6298996E2,5.515148E1,1.325266E2,4.7921402E1,4.4016884E1,4.101526E1,2.1993774E1,4.1295517E1,1.4061371E1,7.992937E1,2.3017365E1,2.1446047E1,1.409851E2,3.2672882E2,5.9418484E1,5.781671E1,7.457605E1,1.1839746E2,3.7028564E1,1.3845361E2,9.070801E1,1.6946582E2,0E0,0E0,0E0,0E0,0E0,0E0,0E0,0E0,0E0,0E0,0E0,0E0,0E0,0E0,0E0,0E0,0E0,0E0,0E0,0E0,0E0,0E0,0E0,0E0,0E0,0E0,0E0,0E0,0E0,0E0,0E0,0E0,0E0,0E0,0E0,0E0,0E0,0E0,0E0,0E0,0E0,0E0,0E0,0E0,0E0,0E0,0E0,0E0,0E0,0E0,0E0,0E0,0E0,0E0,0E0,0E0,0E0,0E0,0E0,0E0,0E0,0E0,0E0,0E0],"parents":[2147483647,0,0,1,1,2,2,3,3,4,4,5,5,6,6,7,7,8,8,9,9,10,10,11,11,12,12,13,13,14,14,15,15,16,16,17,17,18,18,19,19,20,20,21,21,22,22,23,23,24,24,25,25,26,26,27,27,28,28,29,29,30,30,31,31,32,32,33,33,34,34,35,35,36,36,37,37,38,38,39,39,40,40,41,41,42,42,43,43,44,44,45,45,46,46,47,47,48,48,49,49,50,50,51,51,52,52,53,53,54,54,55,55,56,56,57,57,58,58,59,59,60,60,61,61,62,62],"right_children":[2,4,6,8,10,12,14,16,18,20,22,24,26,28,30,32,34,36,38,40,42,44,46,48,50,52,54,56,58,60,62,64,66,68,70,72,74,76,78,80,82,84,86,88,90,92,94,96,98,100,102,104,106,108,110,112,114,116,118,120,122,124,126,-1,-1,-1,-1,-1,-1,-1,-1,-1,-1,-1,-1,-1,-1,-1,-1,-1,-1,-1,-1,-1,-1,-1,-1,-1,-1,-1,-1,-1,-1,-1,-1,-1,-1,-1,-1,-1,-1,-1,-1,-1,-1,-1,-1,-1,-1,-1,-1,-1,-1,-1,-1,-1,-1,-1,-1,-1,-1,-1,-1,-1,-1,-1,-1],"split_conditions":[2.6054522E-1,1.5657587E-1,-3.472692E-1,-7.799291E-1,-6.065167E-1,8.6748856E-1,8.283693E-1,-6.831659E-1,-1.0190626E0,9.963177E-1,1.164266E0,1.2508215E0,-1.5229077E0,7.807824E-1,8.6748856E-1,-7.200745E-2,6.72377E-2,-1.6908561E0,-4.3310434E-1,-1.2134601E0,1.6681111E0,4.2292956E-1,-2.8087518E-1,-1.3549594E0,-8.511143E-1,1.3449776E0,2.069176E0,2.0648284E-1,-1.4163002E-1,-6.986106E-1,1.6227571E0,-4.0019363E-1,1.6227571E0,1.2460527E0,1.2460527E0,-1.7298575E-1,4.266391E-4,1.876928E0,-2.3848761E-3,-2.3848761E-3,-4.0019363E-1,1.0419537E0,2.8424218E-1,5.545957E-1,6.6042095E-1,2.8437495E0,-4.0019363E-1,2.069176E0,1.0648023E0,-2.0267527E0,3.4725142E-1,-2.0267527E0,4.8497313E-1,1.3877257E0,9.541948E-1,-1.116346E0,3.2452422E-1,1.3449776E0,4.2292956E-1,2.8437495E0,2.5078528E0,1.3322144E0,1.3877257E0,-6.576969E-1,-4.9556574E-1,-4.586372E-1,-2.5304818E-1,-4.053432E-1,-2.5160247E-1,-2.7143517E-1,-1.0270911E-1,-4.5858693E-1,-3.0124488E-1,-2.8920385E-1,-1.736205E-1,-2.2925292E-1,-7.946776E-2,-1.4617904E-1,-3.90602E-2,-3.2418275E-1,-2.0982277E-1,-2.5228402E-1,-6.986934E-2,-1.0583246E-1,1.16412275E-1,3.3724412E-1,6.277024E-2,-6.977301E-2,7.641959E-2,4.812987E-2,1.5016872E-1,1.0492368E-1,-3.750088E-1,1.755122E-1,3.1279695E-1,-2.583005E-1,-4.6723064E-2,-1.1581172E-1,-1.9495321E-2,-2.7369937E-1,-5.293345E-2,5.830869E-1,1.5955625E-1,-1.9666772E-1,-5.246796E-2,-2.5245616E-2,1.9927965E-1,4.0492807E-2,1.6728294E-1,1.5693635E0,2.2570406E-1,-3.983011E-2,8.3890066E-2,1.479381E-1,2.8351986E-1,1.754249E-1,2.7976823E-1,2.750274E-1,3.9113694E-1,2.0962356E-1,-2.4998628E-1,3.238823E-1,7.47142E-1,3.965961E-1,5.29376E-1,4.408319E-1,8.361791E-1],"split_indices":[2,0,0,2,2,2,0,0,0,0,0,1,0,2,2,1,1,0,2,2,0,6,1,0,0,8,6,1,1,1,7,6,7,6,6,2,2,4,1,1,6,1,10,1,0,0,6,6,9,0,2,0,1,2,2,1,0,8,6,0,0,0,2,0,0,0,0,0,0,0,0,0,0,0,0,0,0,0,0,0,0,0,0,0,0,0,0,0,0,0,0,0,0,0,0,0,0,0,0,0,0,0,0,0,0,0,0,0,0,0,0,0,0,0,0,0,0,0,0,0,0,0,0,0,0,0,0],"split_type":[0,0,0,0,0,0,0,0,0,0,0,0,0,0,0,0,0,0,0,0,0,0,0,0,0,0,0,0,0,0,0,0,0,0,0,0,0,0,0,0,0,0,0,0,0,0,0,0,0,0,0,0,0,0,0,0,0,0,0,0,0,0,0,0,0,0,0,0,0,0,0,0,0,0,0,0,0,0,0,0,0,0,0,0,0,0,0,0,0,0,0,0,0,0,0,0,0,0,0,0,0,0,0,0,0,0,0,0,0,0,0,0,0,0,0,0,0,0,0,0,0,0,0,0,0,0,0],"sum_hessian":[5.284E3,3.016E3,2.268E3,1.599E3,1.417E3,7.4E2,1.528E3,7.41E2,8.58E2,7.65E2,6.52E2,2.87E2,4.53E2,1.025E3,5.03E2,3.26E2,4.15E2,2.09E2,6.49E2,4.74E2,2.91E2,4.57E2,1.95E2,2.43E2,4.4E1,7E1,3.83E2,3.14E2,7.11E2,1.98E2,3.05E2,1.56E2,1.7E2,1.97E2,2.18E2,6.3E1,1.46E2,2.04E2,4.45E2,1.93E2,2.81E2,1.84E2,1.07E2,2.67E2,1.9E2,7.6E1,1.19E2,5.5E1,1.88E2,1.6E1,2.8E1,5.1E1,1.9E1,3.55E2,2.8E1,1.78E2,1.36E2,3.27E2,3.84E2,6E1,1.38E2,2.53E2,5.2E1,4.3E1,1.13E2,1.29E2,4.1E1,1.66E2,3.1E1,1.85E2,3.3E1,3.9E1,2.4E1,1.06E2,4E1,1.68E2,3.6E1,2.14E2,2.31E2,8.6E1,1.07E2,6E1,2.21E2,1.42E2,4.2E1,7E0,1E2,1.71E2,9.6E1,1.1E2,8E1,7.5E1,1E0,3.6E1,8.3E1,4.9E1,6E0,1.15E2,7.3E1,3E0,1.3E1,5E0,2.3E1,1.6E1,3.5E1,1.4E1,5E0,1.96E2,1.59E2,1E0,2.7E1,5.6E1,1.22E2,7.8E1,5.8E1,2.2E2,1.07E2,2.08E2,1.76E2,5.9E1,1E0,1.3E2,8E0,1.36E2,1.17E2,2.6E1,2.6E1],"tree_param":{"num_deleted":"0","num_feature":"11","num_nodes":"127","size_leaf_vector":"1"}},{"base_weights":[1.0166077E-3,-1.378126E0,1.8348079E0,-2.4301763E0,-1.9007364E-1,9.219645E-1,3.2666073E0,-3.4657085E0,-1.5328594E0,-1.3270577E0,4.5000225E-1,-5.62714E-1,1.3287569E0,2.7664943E0,4.3918033E0,-4.2905846E0,-2.8089771E0,-2.7460132E0,-1.1385592E0,-1.9476812E0,-3.835326E-1,6.5109715E-2,1.8035043E0,-1.6419721E0,1.1121785E-1,1.7266183E-1,1.744216E0,2.1938424E0,3.789342E0,3.7098489E0,5.4281135E0,-4.795616E0,-3.5274E0,-3.4462094E0,-2.220023E0,-3.650487E0,-2.3335485E0,-1.3820724E0,-1.6325034E-1,-2.9207609E0,-1.5325532E0,-1.1039176E0,1.0970907E-1,-1.427199E-1,1.3915101E0,1.0069069E0,2.4939086E0,-2.178331E0,-9.957458E-1,-3.573191E-1,8.188519E-1,-2.7150434E-2,2.1125865E0,1.1437362E0,2.2493596E0,1.526914E0,2.916209E0,2.747909E0,4.3236146E0,3.8520713E0,-7.247607E-1,3.4515016E0,5.9104505E0,-5.1644695E-1,-3.1972378E-1,-4.1206098E-1,-2.5722635E-1,-4.3764684E-1,-3.1358913E-1,-2.7168772E-1,-1.5046175E-1,-4.1941744E-1,-2.6945525E-1,-2.5734457E-1,-1.3528551E-1,-2.0353957E-1,-9.6738495E-2,-9.2392005E-2,5.128178E-2,-3.4566358E-1,-2.0823923E-1,-2.1908112E-1,-8.292126E-2,-1.9271202E-1,-6.261399E-2,-2.5348876E-2,1.5290561E-1,-1.0546799E-1,1.1704848E-2,4.9565718E-1,1.2232118E-1,6.986336E-1,8.031952E-2,1.8984E-1,4.0301594E-1,-3.5441396E-1,-1.7796539E-1,-2.2361596E-1,-6.2642686E-2,-1.1545489E-1,2.005223E-3,3.5591815E-2,1.8298824E-1,-7.8361966E-2,3.2601938E-2,5.299334E-1,9.4973795E-2,2.7607376E-2,1.5125997E-1,1.7185603E-1,2.879212E-1,2.2215245E-2,1.7286427E-1,2.0206772E-1,3.5138455E-1,1.0139799E-1,3.2597184E-1,4.1777873E-1,9.736282E-1,3.001951E-1,4.411082E-1,4.5651436E-1,-2.6957703E-1,2.2273324E-1,4.0793726E-1,4.119698E-1,6.450549E-1],"categories":[],"categories_nodes":[],"categories_segments":[],"categories_sizes":[],"default_left":[0,0,0,0,0,0,0,0,0,0,0,0,0,0,0,0,0,0,0,0,0,0,0,0,0,0,0,0,0,0,0,0,0,0,0,0,0,0,0,0,0,0,0,0,0,0,0,0,0,0,0,0,0,0,0,0,0,0,0,0,0,0,0,0,0,0,0,0,0,0,0,0,0,0,0,0,0,0,0,0,0,0,0,0,0,0,0,0,0,0,0,0,0,0,0,0,0,0,0,0,0,0,0,0,0,0,0,0,0,0,0,0,0,0,0,0,0,0,0,0,0,0,0,0,0,0,0],"id":2,"left_children":[1,3,5,7,9,11,13,15,17,19,21,23,25,27,29,31,33,35,37,39,41,43,45,47,49,51,53,55,57,59,61,63,65,67,69,71,73,75,77,79,81,83,85,87,89,91,93,95,97,99,101,103,105,107,109,111,113,115,117,119,121,123,125,-1,-1,-1,-1,-1,-1,-1,-1,-1,-1,-1,-1,-1,-1,-1,-1,-1,-1,-1,-1,-1,-1,-1,-1,-1,-1,-1,-1,-1,-1,-1,-1,-1,-1,-1,-1,-1,-1,-1,-1,-1,-1,-1,-1,-1,-1,-1,-1,-1,-1,-1,-1,-1,-1,-1,-1,-1,-1,-1,-1,-1,-1,-1,-1],"loss_changes":[1.3368609E4,3.770458E3,2.9625908E3,1.4814082E3,1.0325552E3,8.384346E2,4.8473633E2,3.8990625E2,4.0777356E2,2.9848126E2,4.729077E2,2.1765918E2,5.227567E2,3.513286E2,1.7067578E2,1.0912012E2,1.4847412E2,6.982471E1,1.5414972E2,1.19941284E2,7.2607185E1,1.9536961E2,1.0803375E2,3.769101E1,6.1629837E1,1.1207974E2,2.4039355E2,1.8632678E2,1.0997266E2,1.0748804E2,7.97063E1,9.786377E1,6.5324585E1,4.3433838E1,7.3756226E1,2.1961304E1,3.1102478E1,1.3891199E2,6.784245E1,3.3684692E1,9.9112854E1,3.1437904E1,6.327905E1,1.4534216E2,5.1536514E1,1.1010619E2,9.02381E1,2.7452667E1,2.3337048E1,3.3718533E1,3.398368E1,7.0519104E1,9.502104E1,1.1736047E2,1.4014893E2,5.436325E1,9.405298E1,6.502771E1,7.21958E1,6.326953E1,7.486529E1,8.592163E0,5.370215E1,0E0,0E0,0E0,0E0,0E0,0E0,0E0,0E0,0E0,0E0,0E0,0E0,0E0,0E0,0E0,0E0,0E0,0E0,0E0,0E0,0E0,0E0,0E0,0E0,0E0,0E0,0E0,0E0,0E0,0E0,0E0,0E0,0E0,0E0,0E0,0E0,0E0,0E0,0E0,0E0,0E0,0E0,0E0,0E0,0E0,0E0,0E0,0E0,0E0,0E0,0E0,0E0,0E0,0E0,0E0,0E0,0E0,0E0,0E0,0E0,0E0,0E0,0E0,0E0],"parents":[2147483647,0,0,1,1,2,2,3,3,4,4,5,5,6,6,7,7,8,8,9,9,10,10,11,11,12,12,13,13,14,14,15,15,16,16,17,17,18,18,19,19,20,20,21,21,22,22,23,23,24,24,25,25,26,26,27,27,28,28,29,29,30,30,31,31,32,32,33,33,34,34,35,35,36,36,37,37,38,38,39,39,40,40,41,41,42,42,43,43,44,44,45,45,46,46,47,47,48,48,49,49,50,50,51,51,52,52,53,53,54,54,55,55,56,56,57,57,58,58,59,59,60,60,61,61,62,62],"right_children":[2,4,6,8,10,12,14,16,18,20,22,24,26,28,30,32,34,36,38,40,42,44,46,48,50,52,54,56,58,60,62,64,66,68,70,72,74,76,78,80,82,84,86,88,90,92,94,96,98,100,102,104,106,108,110,112,114,116,118,120,122,124,126,-1,-1,-1,-1,-1,-1,-1,-1,-1,-1,-1,-1,-1,-1,-1,-1,-1,-1,-1,-1,-1,-1,-1,-1,-1,-1,-1,-1,-1,-1,-1,-1,-1,-1,-1,-1,-1,-1,-1,-1,-1,-1,-1,-1,-1,-1,-1,-1,-1,-1,-1,-1,-1,-1,-1,-1,-1,-1,-1,-1,-1,-1,-1,-1],"split_conditions":[2.6054522E-1,1.5657587E-1,3.2452422E-1,-7.799291E-1,-9.533415E-1,-1.0190626E0,1.3010195E0,-6.831659E-1,-1.0190626E0,9.963177E-1,1.3322144E0,8.6748856E-1,6.940762E-1,1.164266E0,4.8497313E-1,-1.1267539E0,6.72377E-2,-1.6908561E0,1.0419537E0,-5.5936545E-1,-7.200745E-2,1.2508215E0,-3.4639814E-1,4.2292956E-1,6.72377E-2,1.5293118E0,-1.4163002E-1,6.72377E-2,6.0737E-1,3.0025513E0,-4.0019363E-1,1.6227571E0,1.0648023E0,-1.4735787E0,-1.1267539E0,1.0290286E-1,1.876928E0,-3.4639814E-1,2.7708095E-1,4.2292956E-1,-1.3001662E0,2.7708095E-1,2.0040078E0,-4.0019363E-1,-8.666353E-1,-1.5340815E0,8.33086E-1,-1.2555912E0,-2.0267527E0,1.2143134E0,1.876928E0,-5.1521754E-1,-6.831659E-1,-5.1521754E-1,4.2292956E-1,4.339576E-1,2.7708095E-1,-7.682332E-1,2.8437495E0,8.283693E-1,1.3877257E0,1.0648023E0,6.6042095E-1,-5.1644695E-1,-3.1972378E-1,-4.1206098E-1,-2.5722635E-1,-4.3764684E-1,-3.1358913E-1,-2.7168772E-1,-1.5046175E-1,-4.1941744E-1,-2.6945525E-1,-2.5734457E-1,-1.3528551E-1,-2.0353957E-1,-9.6738495E-2,-9.2392005E-2,5.128178E-2,-3.4566358E-1,-2.0823923E-1,-2.1908112E-1,-8.292126E-2,-1.9271202E-1,-6.261399E-2,-2.5348876E-2,1.5290561E-1,-1.0546799E-1,1.1704848E-2,4.9565718E-1,1.2232118E-1,6.986336E-1,8.031952E-2,1.8984E-1,4.0301594E-1,-3.5441396E-1,-1.7796539E-1,-2.2361596E-1,-6.2642686E-2,-1.1545489E-1,2.005223E-3,3.5591815E-2,1.8298824E-1,-7.8361966E-2,3.2601938E-2,5.299334E-1,9.4973795E-2,2.7607376E-2,1.5125997E-1,1.7185603E-1,2.879212E-1,2.2215245E-2,1.7286427E-1,2.0206772E-1,3.5138455E-1,1.0139799E-1,3.2597184E-1,4.1777873E-1,9.736282E-1,3.001951E-1,4.411082E-1,4.5651436E-1,-2.6957703E-1,2.2273324E-1,4.0793726E-1,4.119698E-1,6.450549E-1],"split_indices":[2,0,0,2,2,0,2,0,0,0,0,2,2,0,1,2,1,0,1,1,1,1,2,6,1,1,1,1,2,0,6,7,9,2,2,4,4,2,7,6,2,7,0,6,2,1,1,1,0,2,4,0,0,0,6,2,7,1,0,0,2,9,0,0,0,0,0,0,0,0,0,0,0,0,0,0,0,0,0,0,0,0,0,0,0,0,0,0,0,0,0,0,0,0,0,0,0,0,0,0,0,0,0,0,0,0,0,0,0,0,0,0,0,0,0,0,0,0,0,0,0,0,0,0,0,0,0],"split_type":[0,0,0,0,0,0,0,0,0,0,0,0,0,0,0,0,0,0,0,0,0,0,0,0,0,0,0,0,0,0,0,0,0,0,0,0,0,0,0,0,0,0,0,0,0,0,0,0,0,0,0,0,0,0,0,0,0,0,0,0,0,0,0,0,0,0,0,0,0,0,0,0,0,0,0,0,0,0,0,0,0,0,0,0,0,0,0,0,0,0,0,0,0,0,0,0,0,0,0,0,0,0,0,0,0,0,0,0,0,0,0,0,0,0,0,0,0,0,0,0,0,0,0,0,0,0,0],"sum_hessian":[5.284E3,3.016E3,2.268E3,1.599E3,1.417E3,1.386E3,8.82E2,7.41E2,8.58E2,5.1E2,9.07E2,2.98E2,1.088E3,6.13E2,2.69E2,3.26E2,4.15E2,2.09E2,6.49E2,3.07E2,2.03E2,7.07E2,2E2,1.14E2,1.84E2,2.88E2,8E2,3.95E2,2.18E2,1.65E2,1.04E2,1.93E2,1.33E2,1.97E2,2.18E2,6.3E1,1.46E2,5.19E2,1.3E2,9E1,2.17E2,8.2E1,1.21E2,6.12E2,9.5E1,9.4E1,1.06E2,6.1E1,5.3E1,1.11E2,7.3E1,2.62E2,2.6E1,3.67E2,4.33E2,2.07E2,1.88E2,7.6E1,1.42E2,1.6E2,5E0,2.2E1,8.2E1,1.55E2,3.8E1,8E1,5.3E1,4.6E1,1.51E2,1.27E2,9.1E1,3.8E1,2.5E1,1.16E2,3E1,2E2,3.19E2,6.1E1,6.9E1,5.3E1,3.7E1,1.11E2,1.06E2,2.9E1,5.3E1,9.7E1,2.4E1,1.35E2,4.77E2,3E0,9.2E1,2E0,9.2E1,7.8E1,2.8E1,1.2E1,4.9E1,1.1E1,4.2E1,3.5E1,7.6E1,5.1E1,2.2E1,8.3E1,1.79E2,6E0,2E1,1.1E2,2.57E2,2.37E2,1.96E2,2.8E1,1.79E2,7.7E1,1.11E2,1.8E1,5.8E1,1.4E2,2E0,6.6E1,9.4E1,1E0,4E0,9E0,1.3E1,2.1E1,6.1E1],"tree_param":{"num_deleted":"0","num_feature":"11","num_nodes":"127","size_leaf_vector":"1"}},{"base_weights":[1.3877155E-3,-1.3834027E0,1.4916958E0,-2.3661354E0,-2.9620156E-1,5.417952E-1,2.6208193E0,-3.414307E0,-1.7457273E0,-1.2952284E0,2.2761159E-1,-3.63924E-1,1.150423E0,1.7807089E0,3.3045647E0,-4.228382E0,-2.7985957E0,-2.8151288E0,-1.3691573E0,-1.6739308E0,-1.0507454E-2,-2.980798E-1,1.1030548E0,-1.3548697E0,1.5279143E-1,3.3297846E-1,1.6887121E0,1.4271895E0,2.9095843E0,2.6239004E0,4.038937E0,-5.0455394E0,-3.6280773E0,-3.2139034E0,-2.0772655E0,-4.180208E0,-2.4607697E0,-2.2833133E0,-1.0695413E0,-2.635528E0,-1.2887483E0,-9.83441E-1,4.4184908E-1,-6.016404E-1,5.072478E-1,4.18943E-1,1.6366149E0,-1.9036041E0,-7.045944E-1,-3.9473295E-1,8.8766307E-1,-2.4613245E-1,1.0211042E0,1.1038723E0,2.1275737E0,1.0583231E0,2.4056358E0,1.9287441E0,3.7152433E0,2.2172692E0,3.5440438E0,3.6414251E0,5.2578254E0,-5.217889E-1,-3.4329936E-1,-4.5707664E-1,-2.6874265E-1,-3.4640476E-1,-2.1705008E-1,-2.6943842E-1,-1.3302541E-1,-4.714283E-1,-2.8507954E-1,-2.7402925E-1,-1.0563498E-1,-3.2344365E-1,-1.9215694E-1,-1.5554012E-1,-5.1182058E-2,-3.1259996E-1,-1.8774095E-1,-1.797614E-1,-6.29385E-2,-2.0896263E-1,-1.5993921E-2,-2.2156164E-3,9.4744764E-2,-9.282493E-2,-8.628143E-3,5.047859E-3,1.770853E-1,-1.8004784E-3,1.573395E-1,1.258415E-1,2.971686E-1,-2.2193192E-1,-1.0214584E-1,-1.2141053E-1,7.924398E-3,-8.411407E-2,2.266478E-2,4.5539238E-2,1.953417E-1,-1.2692484E-1,2.0241922E-2,6.0733933E-2,2.5408128E-1,1.6059648E-2,1.3581671E-1,5.348699E-2,2.3066072E-1,8.571085E-2,1.876385E-1,7.091344E-1,2.1595962E-1,2.2148804E-1,-4.0553817E-1,3.3198655E-1,7.181608E-1,1.3936447E-1,2.4323371E-1,2.90942E-1,4.3323866E-1,3.730981E-1,2.042705E-2,3.6791596E-1,6.273658E-1],"categories":[],"categories_nodes":[],"categories_segments":[],"categories_sizes":[],"default_left":[0,0,0,0,0,0,0,0,0,0,0,0,0,0,0,0,0,0,0,0,0,0,0,0,0,0,0,0,0,0,0,0,0,0,0,0,0,0,0,0,0,0,0,0,0,0,0,0,0,0,0,0,0,0,0,0,0,0,0,0,0,0,0,0,0,0,0,0,0,0,0,0,0,0,0,0,0,0,0,0,0,0,0,0,0,0,0,0,0,0,0,0,0,0,0,0,0,0,0,0,0,0,0,0,0,0,0,0,0,0,0,0,0,0,0,0,0,0,0,0,0,0,0,0,0,0,0],"id":3,"left_children":[1,3,5,7,9,11,13,15,17,19,21,23,25,27,29,31,33,35,37,39,41,43,45,47,49,51,53,55,57,59,61,63,65,67,69,71,73,75,77,79,81,83,85,87,89,91,93,95,97,99,101,103,105,107,109,111,113,115,117,119,121,123,125,-1,-1,-1,-1,-1,-1,-1,-1,-1,-1,-1,-1,-1,-1,-1,-1,-1,-1,-1,-1,-1,-1,-1,-1,-1,-1,-1,-1,-1,-1,-1,-1,-1,-1,-1,-1,-1,-1,-1,-1,-1,-1,-1,-1,-1,-1,-1,-1,-1,-1,-1,-1,-1,-1,-1,-1,-1,-1,-1,-1,-1,-1,-1,-1],"loss_changes":[1.0909059E4,2.9267925E3,2.7293047E3,9.29813E2,6.816358E2,7.633429E2,6.6216846E2,2.5582617E2,3.609961E2,2.1794641E2,3.9381085E2,2.854116E2,3.6377563E2,2.0496497E2,3.0931348E2,9.353784E1,8.529321E1,1.0338965E2,1.8161572E2,1.24758545E2,4.5766155E1,1.3109436E2,1.164841E2,6.681296E1,1.4801656E2,1.3175668E2,1.2572656E2,1.421814E2,9.08219E1,1.1748511E2,1.2911816E2,8.211914E0,1.0742651E2,4.2854614E1,4.9430145E1,1.9930786E1,7.130054E1,5.0555237E1,1.3685883E2,3.0571106E1,8.241495E1,2.9726994E1,1.6677616E1,6.53967E1,8.475547E1,7.1658134E1,8.71467E1,2.641925E1,3.564051E1,5.8719753E1,7.143942E1,8.2862595E1,9.3405975E1,5.159381E1,7.974805E1,4.6621307E1,1.1034839E2,1.0829419E2,6.7983154E1,3.823706E1,3.792578E1,7.1266846E1,9.398547E1,0E0,0E0,0E0,0E0,0E0,0E0,0E0,0E0,0E0,0E0,0E0,0E0,0E0,0E0,0E0,0E0,0E0,0E0,0E0,0E0,0E0,0E0,0E0,0E0,0E0,0E0,0E0,0E0,0E0,0E0,0E0,0E0,0E0,0E0,0E0,0E0,0E0,0E0,0E0,0E0,0E0,0E0,0E0,0E0,0E0,0E0,0E0,0E0,0E0,0E0,0E0,0E0,0E0,0E0,0E0,0E0,0E0,0E0,0E0,0E0,0E0,0E0,0E0,0E0],"parents":[2147483647,0,0,1,1,2,2,3,3,4,4,5,5,6,6,7,7,8,8,9,9,10,10,11,11,12,12,13,13,14,14,15,15,16,16,17,17,18,18,19,19,20,20,21,21,22,22,23,23,24,24,25,25,26,26,27,27,28,28,29,29,30,30,31,31,32,32,33,33,34,34,35,35,36,36,37,37,38,38,39,39,40,40,41,41,42,42,43,43,44,44,45,45,46,46,47,47,48,48,49,49,50,50,51,51,52,52,53,53,54,54,55,55,56,56,57,57,58,58,59,59,60,60,61,61,62,62],"right_children":[2,4,6,8,10,12,14,16,18,20,22,24,26,28,30,32,34,36,38,40,42,44,46,48,50,52,54,56,58,60,62,64,66,68,70,72,74,76,78,80,82,84,86,88,90,92,94,96,98,100,102,104,106,108,110,112,114,116,118,120,122,124,126,-1,-1,-1,-1,-1,-1,-1,-1,-1,-1,-1,-1,-1,-1,-1,-1,-1,-1,-1,-1,-1,-1,-1,-1,-1,-1,-1,-1,-1,-1,-1,-1,-1,-1,-1,-1,-1,-1,-1,-1,-1,-1,-1,-1,-1,-1,-1,-1,-1,-1,-1,-1,-1,-1,-1,-1,-1,-1,-1,-1,-1,-1,-1,-1],"split_conditions":[8.7132834E-2,1.5657587E-1,1.5657587E-1,-1.0400476E0,-1.0400476E0,7.807824E-1,8.6748856E-1,-6.831659E-1,-1.0190626E0,1.3322144E0,9.963177E-1,-8.511143E-1,-6.831659E-1,1.3322144E0,8.283693E-1,8.2502216E-1,5.545957E-1,-4.0019363E-1,-8.3785576E-1,-5.5936545E-1,2.7708095E-1,1.3449776E0,-1.4163002E-1,4.2292956E-1,2.761054E-1,-7.200745E-2,-2.112526E-1,8.33086E-1,-2.112526E-1,6.9384086E-1,1.0419537E0,1.1811988E0,-1.4163002E-1,1.876928E0,1.0290286E-1,1.3449776E0,1.876928E0,-2.5255087E-1,-4.3310434E-1,4.2292956E-1,1.0648023E0,6.72377E-2,1.0648023E0,-3.4639814E-1,9.7233117E-1,1.6681111E0,1.876928E0,8.33086E-1,1.3449776E0,4.2292956E-1,1.3449776E0,1.1276071E0,1.2460527E0,-4.0019363E-1,2.8424218E-1,1.6227571E0,-1.3758352E0,2.8437495E0,2.8437495E0,-2.5255087E-1,1.3877257E0,3.0025513E0,8.2502216E-1,-5.217889E-1,-3.4329936E-1,-4.5707664E-1,-2.6874265E-1,-3.4640476E-1,-2.1705008E-1,-2.6943842E-1,-1.3302541E-1,-4.714283E-1,-2.8507954E-1,-2.7402925E-1,-1.0563498E-1,-3.2344365E-1,-1.9215694E-1,-1.5554012E-1,-5.1182058E-2,-3.1259996E-1,-1.8774095E-1,-1.797614E-1,-6.29385E-2,-2.0896263E-1,-1.5993921E-2,-2.2156164E-3,9.4744764E-2,-9.282493E-2,-8.628143E-3,5.047859E-3,1.770853E-1,-1.8004784E-3,1.573395E-1,1.258415E-1,2.971686E-1,-2.2193192E-1,-1.0214584E-1,-1.2141053E-1,7.924398E-3,-8.411407E-2,2.266478E-2,4.5539238E-2,1.953417E-1,-1.2692484E-1,2.0241922E-2,6.0733933E-2,2.5408128E-1,1.6059648E-2,1.3581671E-1,5.348699E-2,2.3066072E-1,8.571085E-2,1.876385E-1,7.091344E-1,2.1595962E-1,2.2148804E-1,-4.0553817E-1,3.3198655E-1,7.181608E-1,1.3936447E-1,2.4323371E-1,2.90942E-1,4.3323866E-1,3.730981E-1,2.042705E-2,3.6791596E-1,6.273658E-1],"split_indices":[2,0,0,2,2,2,2,0,0,0,0,0,0,0,0,3,1,6,1,1,7,8,1,6,1,1,1,1,1,1,1,1,1,4,4,8,4,9,2,6,9,1,9,2,1,0,4,1,8,6,8,2,6,6,10,7,5,0,0,9,2,0,3,0,0,0,0,0,0,0,0,0,0,0,0,0,0,0,0,0,0,0,0,0,0,0,0,0,0,0,0,0,0,0,0,0,0,0,0,0,0,0,0,0,0,0,0,0,0,0,0,0,0,0,0,0,0,0,0,0,0,0,0,0,0,0,0],"split_type":[0,0,0,0,0,0,0,0,0,0,0,0,0,0,0,0,0,0,0,0,0,0,0,0,0,0,0,0,0,0,0,0,0,0,0,0,0,0,0,0,0,0,0,0,0,0,0,0,0,0,0,0,0,0,0,0,0,0,0,0,0,0,0,0,0,0,0,0,0,0,0,0,0,0,0,0,0,0,0,0,0,0,0,0,0,0,0,0,0,0,0,0,0,0,0,0,0,0,0,0,0,0,0,0,0,0,0,0,0,0,0,0,0,0,0,0,0,0,0,0,0,0,0,0,0,0,0],"sum_hessian":[5.284E3,2.739E3,2.545E3,1.438E3,1.301E3,1.383E3,1.162E3,5.33E2,9.05E2,4.47E2,8.54E2,5.56E2,8.27E2,5.23E2,6.39E2,2.27E2,3.06E2,2.34E2,6.71E2,3.45E2,1.02E2,5.34E2,3.2E2,1.9E2,3.66E2,3.29E2,4.98E2,4E2,1.23E2,3.34E2,3.05E2,9.3E1,1.34E2,1.92E2,1.14E2,4.6E1,1.88E2,1.64E2,5.07E2,9.7E1,2.48E2,3.2E1,7E1,3.88E2,1.46E2,1.41E2,1.79E2,1.02E2,8.8E1,2.1E2,1.56E2,1.79E2,1.5E2,2.15E2,2.83E2,2.92E2,1.08E2,5.7E1,6.6E1,2.34E2,1E2,2.33E2,7.2E1,8.2E1,1.1E1,6.5E1,6.9E1,1.53E2,3.9E1,6.1E1,5.3E1,3.1E1,1.5E1,1.56E2,3.2E1,4.3E1,1.21E2,2.7E2,2.37E2,5.7E1,4E1,1.39E2,1.09E2,1.3E1,1.9E1,3.7E1,3.3E1,2.37E2,1.51E2,1.08E2,3.8E1,1.03E2,3.8E1,1.41E2,3.8E1,7.4E1,2.8E1,5.3E1,3.5E1,1.22E2,8.8E1,1.12E2,4.4E1,5.4E1,1.25E2,1.19E2,3.1E1,4.6E1,1.69E2,2.9E1,2.54E2,2.36E2,5.6E1,4E0,1.04E2,5.5E1,2E0,6.1E1,5E0,5E1,1.84E2,5.8E1,4.2E1,2.27E2,6E0,3E1,4.2E1],"tree_param":{"num_deleted":"0","num_feature":"11","num_nodes":"127","size_leaf_vector":"1"}},{"base_weights":[1.3088433E-3,-1.0129299E0,1.6677024E0,-1.8573148E0,-4.6156105E-2,3.0264482E-1,2.3157809E0,-2.6296577E0,-9.456391E-1,-8.231653E-1,7.288897E-1,-4.8047352E-1,6.712162E-1,1.8330107E0,3.2999847E0,-3.3476803E0,-2.0725384E0,-1.8774861E0,-6.650124E-1,-1.3057538E0,-3.5313565E-2,3.3188015E-1,1.6224372E0,-1.1224718E0,1.7865553E-1,5.173911E-1,2.6790636E0,1.2553382E0,2.2602751E0,2.5742579E0,3.8306272E0,-5.8866725E0,-3.2034907E0,-2.521882E0,-1.4663868E0,-2.6042943E0,-1.4265968E0,-1.1000051E0,-4.0511042E-2,-2.406525E0,-1.0057974E0,-4.48445E-1,6.7269224E-1,-9.081665E-2,9.8759586E-1,5.8423185E-1,2.1024444E0,-1.9553502E0,-3.5878617E-1,-3.9995784E-1,8.244735E-1,1.1089923E-1,1.4191217E0,1.4100872E0,4.8581038E0,3.6767092E-1,1.5089995E0,1.9980283E0,2.9051225E0,2.0956955E0,3.390039E0,2.6675882E0,4.2562766E0,-6.042138E-1,-1.3886872E-1,-4.835083E-2,-3.3026895E-1,-2.7499828E-1,-1.2647401E-1,-1.9731055E-1,-7.708316E-2,-2.9685378E-1,-1.7824717E-1,-2.2636154E-1,-9.790667E-2,-1.9683489E-1,-8.0971785E-2,-2.8112192E-2,1.3472335E-1,-3.2754928E-1,-1.7830135E-1,-1.6451125E-1,-4.381712E-2,-8.730815E-2,9.7414725E-2,2.9963827E-1,4.8197728E-2,-6.0039897E-2,5.003603E-2,-3.562934E-2,1.1476058E-1,7.534687E-2,-3.7850216E-1,1.2079578E-1,2.460628E-1,-2.3258649E-1,-5.8823206E-2,-4.990921E-2,1.5899639E-1,-1.8645859E-1,-2.1620331E-2,3.3535082E-2,2.4836837E-1,-1.0871952E-1,2.3120759E-2,1.0552694E-1,2.0159924E-1,9.969812E-2,2.2766888E-1,1.4637951E0,2.4163239E-1,-3.690972E-2,9.349967E-2,6.294285E-2,1.7656703E-1,1.5260918E-1,2.4258359E-1,2.474889E-1,3.6377174E-1,1.3532376E-1,2.989039E-1,2.9175428E-1,4.266847E-1,1.9879715E-1,3.3899355E-1,3.718817E-1,5.369012E-1],"categories":[],"categories_nodes":[],"categories_segments":[],"categories_sizes":[],"default_left":[0,0,0,0,0,0,0,0,0,0,0,0,0,0,0,0,0,0,0,0,0,0,0,0,0,0,0,0,0,0,0,0,0,0,0,0,0,0,0,0,0,0,0,0,0,0,0,0,0,0,0,0,0,0,0,0,0,0,0,0,0,0,0,0,0,0,0,0,0,0,0,0,0,0,0,0,0,0,0,0,0,0,0,0,0,0,0,0,0,0,0,0,0,0,0,0,0,0,0,0,0,0,0,0,0,0,0,0,0,0,0,0,0,0,0,0,0,0,0,0,0,0,0,0,0,0,0],"id":4,"left_children":[1,3,5,7,9,11,13,15,17,19,21,23,25,27,29,31,33,35,37,39,41,43,45,47,49,51,53,55,57,59,61,63,65,67,69,71,73,75,77,79,81,83,85,87,89,91,93,95,97,99,101,103,105,107,109,111,113,115,117,119,121,123,125,-1,-1,-1,-1,-1,-1,-1,-1,-1,-1,-1,-1,-1,-1,-1,-1,-1,-1,-1,-1,-1,-1,-1,-1,-1,-1,-1,-1,-1,-1,-1,-1,-1,-1,-1,-1,-1,-1,-1,-1,-1,-1,-1,-1,-1,-1,-1,-1,-1,-1,-1,-1,-1,-1,-1,-1,-1,-1,-1,-1,-1,-1,-1,-1],"loss_changes":[8.933979E3,2.6823728E3,1.7686284E3,1.2325498E3,9.237998E2,1.864921E2,6.382466E2,3.7268506E2,2.0952142E2,2.9119336E2,2.7190714E2,8.77946E1,1.3420227E2,2.2226172E2,1.6150928E2,1.3234033E2,1.4256519E2,5.723877E1,1.6865228E2,1.5441663E2,8.571152E1,1.4782076E2,1.1638141E2,6.608446E1,3.881868E1,1.4976E2,7.886932E1,8.726019E1,8.263916E1,6.746228E1,1.1488281E2,6.2942505E0,1.04441895E2,8.4555664E1,7.989517E1,1.566272E1,4.16109E1,9.066348E1,8.585877E1,4.888269E1,1.3536365E2,1.1260614E2,4.6417377E1,9.820774E1,4.535132E1,5.9049232E1,4.8610474E1,2.3958725E1,1.6105125E1,1.4399133E1,3.8933403E1,4.1043205E1,2.5453506E1,5.24815E0,2.2731253E2,3.7128006E1,6.729401E1,7.200964E1,3.795996E1,7.753735E1,1.6137207E1,2.8116241E1,9.067285E1,0E0,0E0,0E0,0E0,0E0,0E0,0E0,0E0,0E0,0E0,0E0,0E0,0E0,0E0,0E0,0E0,0E0,0E0,0E0,0E0,0E0,0E0,0E0,0E0,0E0,0E0,0E0,0E0,0E0,0E0,0E0,0E0,0E0,0E0,0E0,0E0,0E0,0E0,0E0,0E0,0E0,0E0,0E0,0E0,0E0,0E0,0E0,0E0,0E0,0E0,0E0,0E0,0E0,0E0,0E0,0E0,0E0,0E0,0E0,0E0,0E0,0E0,0E0,0E0],"parents":[2147483647,0,0,1,1,2,2,3,3,4,4,5,5,6,6,7,7,8,8,9,9,10,10,11,11,12,12,13,13,14,14,15,15,16,16,17,17,18,18,19,19,20,20,21,21,22,22,23,23,24,24,25,25,26,26,27,27,28,28,29,29,30,30,31,31,32,32,33,33,34,34,35,35,36,36,37,37,38,38,39,39,40,40,41,41,42,42,43,43,44,44,45,45,46,46,47,47,48,48,49,49,50,50,51,51,52,52,53,53,54,54,55,55,56,56,57,57,58,58,59,59,60,60,61,61,62,62],"right_children":[2,4,6,8,10,12,14,16,18,20,22,24,26,28,30,32,34,36,38,40,42,44,46,48,50,52,54,56,58,60,62,64,66,68,70,72,74,76,78,80,82,84,86,88,90,92,94,96,98,100,102,104,106,108,110,112,114,116,118,120,122,124,126,-1,-1,-1,-1,-1,-1,-1,-1,-1,-1,-1,-1,-1,-1,-1,-1,-1,-1,-1,-1,-1,-1,-1,-1,-1,-1,-1,-1,-1,-1,-1,-1,-1,-1,-1,-1,-1,-1,-1,-1,-1,-1,-1,-1,-1,-1,-1,-1,-1,-1,-1,-1,-1,-1,-1,-1,-1,-1,-1,-1,-1,-1,-1,-1],"split_conditions":[4.339576E-1,1.5657587E-1,-3.472692E-1,-5.198105E-1,-6.065167E-1,-1.187011E0,8.283693E-1,-6.831659E-1,-1.0190626E0,9.963177E-1,1.164266E0,1.2143134E0,2.069176E0,-2.8087518E-1,2.7708095E-1,-2.1947012E0,-1.0400476E0,-2.112526E-1,4.2292956E-1,-4.0019363E-1,1.6681111E0,3.4572798E-1,-4.8974288E-1,4.2292956E-1,1.0290286E-1,1.3877257E0,7.6346344E-1,7.807824E-1,1.3877257E0,1.5001627E0,-6.28988E-1,2.0260894E0,-2.0267527E0,1.2460527E0,1.0648023E0,-1.187011E0,-1.6908561E0,-8.3785576E-1,1.320444E0,4.924726E-1,-1.1267539E0,1.0419537E0,2.8424218E-1,4.2292956E-1,-3.256528E-1,2.8437495E0,-4.0019363E-1,6.242183E-1,1.6227571E0,-2.3626494E0,1.2460527E0,2.8424218E-1,4.8497313E-1,1.3449776E0,-8.511143E-1,-1.116346E0,-4.0019363E-1,1.0290286E-1,1.1115763E0,1.0648023E0,6.9384086E-1,1.0648023E0,1.3877257E0,-6.042138E-1,-1.3886872E-1,-4.835083E-2,-3.3026895E-1,-2.7499828E-1,-1.2647401E-1,-1.9731055E-1,-7.708316E-2,-2.9685378E-1,-1.7824717E-1,-2.2636154E-1,-9.790667E-2,-1.9683489E-1,-8.0971785E-2,-2.8112192E-2,1.3472335E-1,-3.2754928E-1,-1.7830135E-1,-1.6451125E-1,-4.381712E-2,-8.730815E-2,9.7414725E-2,2.9963827E-1,4.8197728E-2,-6.0039897E-2,5.003603E-2,-3.562934E-2,1.1476058E-1,7.534687E-2,-3.7850216E-1,1.2079578E-1,2.460628E-1,-2.3258649E-1,-5.8823206E-2,-4.990921E-2,1.5899639E-1,-1.8645859E-1,-2.1620331E-2,3.3535082E-2,2.4836837E-1,-1.0871952E-1,2.3120759E-2,1.0552694E-1,2.0159924E-1,9.969812E-2,2.2766888E-1,1.4637951E0,2.4163239E-1,-3.690972E-2,9.349967E-2,6.294285E-2,1.7656703E-1,1.5260918E-1,2.4258359E-1,2.474889E-1,3.6377174E-1,1.3532376E-1,2.989039E-1,2.9175428E-1,4.266847E-1,1.9879715E-1,3.3899355E-1,3.718817E-1,5.369012E-1],"split_indices":[2,0,0,2,2,0,0,0,0,0,0,2,6,1,7,0,2,1,6,6,0,1,1,6,4,2,1,2,2,0,1,5,0,6,9,0,0,1,1,0,2,1,10,6,8,0,6,1,7,0,6,10,1,8,0,1,6,4,1,9,1,9,2,0,0,0,0,0,0,0,0,0,0,0,0,0,0,0,0,0,0,0,0,0,0,0,0,0,0,0,0,0,0,0,0,0,0,0,0,0,0,0,0,0,0,0,0,0,0,0,0,0,0,0,0,0,0,0,0,0,0,0,0,0,0,0,0],"split_type":[0,0,0,0,0,0,0,0,0,0,0,0,0,0,0,0,0,0,0,0,0,0,0,0,0,0,0,0,0,0,0,0,0,0,0,0,0,0,0,0,0,0,0,0,0,0,0,0,0,0,0,0,0,0,0,0,0,0,0,0,0,0,0,0,0,0,0,0,0,0,0,0,0,0,0,0,0,0,0,0,0,0,0,0,0,0,0,0,0,0,0,0,0,0,0,0,0,0,0,0,0,0,0,0,0,0,0,0,0,0,0,0,0,0,0,0,0,0,0,0,0,0,0,0,0,0,0],"sum_hessian":[5.284E3,3.285E3,1.999E3,1.753E3,1.532E3,6.44E2,1.355E3,9.48E2,8.05E2,7.65E2,7.67E2,2.06E2,4.38E2,9.11E2,4.44E2,4.12E2,5.36E2,1.85E2,6.2E2,4.74E2,2.91E2,5.32E2,2.35E2,1.04E2,1.02E2,4.08E2,3E1,3.89E2,5.22E2,1.9E2,2.54E2,2E1,3.92E2,3.06E2,2.3E2,6.9E1,1.16E2,3.65E2,2.55E2,1E2,3.74E2,1.84E2,1.07E2,3.24E2,2.08E2,7.5E1,1.6E2,4.9E1,5.5E1,5.4E1,4.8E1,2.82E2,1.26E2,2E1,1E1,8.7E1,3.02E2,3.74E2,1.48E2,1.22E2,6.8E1,7E1,1.84E2,1.9E1,1E0,1.4E1,3.78E2,2.58E2,4.8E1,1.32E2,9.8E1,4.6E1,2.3E1,3.9E1,7.7E1,9E1,2.75E2,2.18E2,3.7E1,4E1,6E1,1.75E2,1.99E2,1.42E2,4.2E1,7E0,1E2,1.74E2,1.5E2,2.2E1,1.86E2,7.3E1,2E0,4.7E1,1.13E2,3.8E1,1.1E1,5.2E1,3E0,5E0,4.9E1,3.8E1,1E1,2.5E1,2.57E2,8E1,4.6E1,1.5E1,5E0,1E0,9E0,3.8E1,4.9E1,6.9E1,2.33E2,1.8E2,1.94E2,9.6E1,5.2E1,6.8E1,5.4E1,4.7E1,2.1E1,3.8E1,3.2E1,1.27E2,5.7E1],"tree_param":{"num_deleted":"0","num_feature":"11","num_nodes":"127","size_leaf_vector":"1"}},{"base_weights":[1.7568279E-3,-1.1301316E0,1.2198921E0,-2.0495057E0,-3.5746908E-1,4.4005454E-1,2.1468701E0,-2.9600017E0,-1.5107751E0,-1.079917E0,1.2000206E-1,-2.906065E-1,9.310426E-1,1.452737E0,2.711837E0,-3.6756175E0,-2.529811E0,-2.2797387E0,-1.1818631E0,-1.4845558E0,-3.0104902E-1,-2.9363492E-1,9.79446E-1,-1.1139064E0,1.386602E-1,2.7385414E-1,1.3637905E0,1.1224766E0,2.3418667E0,2.399307E0,3.8008661E0,-4.3026596E-1,-2.8647892E0,-3.3054388E0,-2.20226E0,-3.4929035E0,-1.9659902E0,-1.700456E0,-7.3711956E-1,-1.7216772E0,-4.1335785E-1,-5.497964E-1,8.750443E-1,-1.1321292E0,-3.749795E-2,3.397196E-1,1.5505013E0,-1.5810747E0,-5.6073505E-1,-3.2567036E-1,7.6181364E-1,-2.2402026E-1,8.655332E-1,8.7396854E-1,1.731529E0,8.7759775E-1,2.2083957E0,6.1849327E0,2.1551E0,1.9268007E0,2.9239342E0,3.12552E0,4.8632236E0,-3.14669E-1,3.1370506E-1,-3.6831355E-1,-1.8937671E-1,-2.589341E-1,-1.4611073E-1,-3.971216E-1,-2.3179717E-1,-2.213949E-1,-7.267315E-2,-2.1516159E-1,-1.066455E-1,-1.3956007E-1,-2.9648498E-2,-2.480986E-1,-1.4352573E-1,-1.1003357E-1,1.4278015E-1,-1.194553E-1,-1.0387565E-2,1.50422E-2,1.5154736E-1,-1.5354669E-1,-1.3524246E-2,-9.4817065E-2,2.6357193E-2,1.2279996E-3,1.5290074E-1,1.2192949E-1,4.5383945E-1,-2.9107296E-1,-1.3904558E-1,-9.81984E-2,2.2030164E-2,-6.967454E-2,1.9082282E-2,3.7801538E-2,1.7086446E-1,-1.0861629E-1,1.540898E-2,5.1003035E-2,2.1716212E-1,5.9142005E-2,1.5212516E-1,1.21789314E-1,2.2511409E-1,7.723265E-2,2.391732E-1,5.8638203E-1,1.898009E-1,1.4345734E0,1.6836259E-1,1.7617016E-1,3.3785924E-1,1.504266E-1,2.4440117E-1,2.3945549E-1,3.665488E-1,3.4181935E-1,-1.4928284E-1,3.8378203E-1,8.0468655E-1],"categories":[],"categories_nodes":[],"categories_segments":[],"categories_sizes":[],"default_left":[0,0,0,0,0,0,0,0,0,0,0,0,0,0,0,0,0,0,0,0,0,0,0,0,0,0,0,0,0,0,0,0,0,0,0,0,0,0,0,0,0,0,0,0,0,0,0,0,0,0,0,0,0,0,0,0,0,0,0,0,0,0,0,0,0,0,0,0,0,0,0,0,0,0,0,0,0,0,0,0,0,0,0,0,0,0,0,0,0,0,0,0,0,0,0,0,0,0,0,0,0,0,0,0,0,0,0,0,0,0,0,0,0,0,0,0,0,0,0,0,0,0,0,0,0],"id":5,"left_children":[1,3,5,7,9,11,13,15,17,19,21,23,25,27,29,31,33,35,37,39,41,43,45,47,49,51,53,55,57,59,61,-1,63,65,67,69,71,73,75,77,79,81,83,85,87,89,91,93,95,97,99,101,103,105,107,109,111,113,115,117,119,121,123,-1,-1,-1,-1,-1,-1,-1,-1,-1,-1,-1,-1,-1,-1,-1,-1,-1,-1,-1,-1,-1,-1,-1,-1,-1,-1,-1,-1,-1,-1,-1,-1,-1,-1,-1,-1,-1,-1,-1,-1,-1,-1,-1,-1,-1,-1,-1,-1,-1,-1,-1,-1,-1,-1,-1,-1,-1,-1,-1,-1,-1,-1],"loss_changes":[7.288301E3,1.9456697E3,1.8395388E3,6.091592E2,5.141021E2,4.9677487E2,4.5214502E2,1.3354419E2,1.9660767E2,1.8644312E2,3.1952463E2,1.9700673E2,2.3510718E2,1.5124097E2,2.0870752E2,7.512256E1,6.7159546E1,8.258081E1,1.2652161E2,9.834985E1,6.0161324E1,1.3032256E2,1.06146454E2,4.8472412E1,1.06439255E2,9.740591E1,8.836981E1,1.0017468E2,8.787451E1,1.18311035E2,8.5961426E1,0E0,1.4184143E2,3.834558E1,5.6175842E1,1.720813E1,5.6467896E1,7.064453E1,8.663109E1,6.581561E1,9.263924E1,4.8465168E1,1.647854E1,5.6888E1,1.2801598E2,5.4110588E1,1.4686624E2,2.2058868E1,2.94983E1,4.057273E1,5.6406662E1,5.884463E1,6.900443E1,3.8604294E1,7.305548E1,4.8362137E1,6.829205E1,1.9625276E2,5.9507507E1,5.445508E1,8.34751E1,1.25401245E2,1.4213684E2,0E0,0E0,0E0,0E0,0E0,0E0,0E0,0E0,0E0,0E0,0E0,0E0,0E0,0E0,0E0,0E0,0E0,0E0,0E0,0E0,0E0,0E0,0E0,0E0,0E0,0E0,0E0,0E0,0E0,0E0,0E0,0E0,0E0,0E0,0E0,0E0,0E0,0E0,0E0,0E0,0E0,0E0,0E0,0E0,0E0,0E0,0E0,0E0,0E0,0E0,0E0,0E0,0E0,0E0,0E0,0E0,0E0,0E0,0E0,0E0,0E0,0E0],"parents":[2147483647,0,0,1,1,2,2,3,3,4,4,5,5,6,6,7,7,8,8,9,9,10,10,11,11,12,12,13,13,14,14,15,15,16,16,17,17,18,18,19,19,20,20,21,21,22,22,23,23,24,24,25,25,26,26,27,27,28,28,29,29,30,30,32,32,33,33,34,34,35,35,36,36,37,37,38,38,39,39,40,40,41,41,42,42,43,43,44,44,45,45,46,46,47,47,48,48,49,49,50,50,51,51,52,52,53,53,54,54,55,55,56,56,57,57,58,58,59,59,60,60,61,61,62,62],"right_children":[2,4,6,8,10,12,14,16,18,20,22,24,26,28,30,32,34,36,38,40,42,44,46,48,50,52,54,56,58,60,62,-1,64,66,68,70,72,74,76,78,80,82,84,86,88,90,92,94,96,98,100,102,104,106,108,110,112,114,116,118,120,122,124,-1,-1,-1,-1,-1,-1,-1,-1,-1,-1,-1,-1,-1,-1,-1,-1,-1,-1,-1,-1,-1,-1,-1,-1,-1,-1,-1,-1,-1,-1,-1,-1,-1,-1,-1,-1,-1,-1,-1,-1,-1,-1,-1,-1,-1,-1,-1,-1,-1,-1,-1,-1,-1,-1,-1,-1,-1,-1,-1,-1,-1,-1],"split_conditions":[8.7132834E-2,-1.1372489E-2,1.5657587E-1,-1.0400476E0,-9.533415E-1,7.807824E-1,8.6748856E-1,-8.511143E-1,-1.0190626E0,9.963177E-1,9.963177E-1,-8.511143E-1,-6.831659E-1,8.33086E-1,1.3322144E0,6.72377E-2,-4.0019363E-1,-4.0019363E-1,-7.200745E-2,1.876928E0,1.2460527E0,-2.5255087E-1,1.0290286E-1,4.2292956E-1,2.761054E-1,-7.200745E-2,-2.112526E-1,1.5001627E0,-1.3758352E0,6.72377E-2,1.0648023E0,-4.3026596E-1,2.0260894E0,1.876928E0,5.545957E-1,1.3449776E0,1.876928E0,-3.4639814E-1,2.7708095E-1,-5.5936545E-1,9.027086E-1,2.7708095E-1,-2.3848761E-3,-1.7298575E-1,-4.0019363E-1,-1.7298575E-1,1.3900666E0,2.8424218E-1,1.0648023E0,4.2292956E-1,1.3449776E0,1.1276071E0,1.2460527E0,1.3449776E0,1.0290286E-1,2.069176E0,-1.3758352E0,6.6042095E-1,1.3322144E0,4.2292956E-1,1.3877257E0,2.6758013E0,1.1115763E0,-3.14669E-1,3.1370506E-1,-3.6831355E-1,-1.8937671E-1,-2.589341E-1,-1.4611073E-1,-3.971216E-1,-2.3179717E-1,-2.213949E-1,-7.267315E-2,-2.1516159E-1,-1.066455E-1,-1.3956007E-1,-2.9648498E-2,-2.480986E-1,-1.4352573E-1,-1.1003357E-1,1.4278015E-1,-1.194553E-1,-1.0387565E-2,1.50422E-2,1.5154736E-1,-1.5354669E-1,-1.3524246E-2,-9.4817065E-2,2.6357193E-2,1.2279996E-3,1.5290074E-1,1.2192949E-1,4.5383945E-1,-2.9107296E-1,-1.3904558E-1,-9.81984E-2,2.2030164E-2,-6.967454E-2,1.9082282E-2,3.7801538E-2,1.7086446E-1,-1.0861629E-1,1.540898E-2,5.1003035E-2,2.1716212E-1,5.9142005E-2,1.5212516E-1,1.21789314E-1,2.2511409E-1,7.723265E-2,2.391732E-1,5.8638203E-1,1.898009E-1,1.4345734E0,1.6836259E-1,1.7617016E-1,3.3785924E-1,1.504266E-1,2.4440117E-1,2.3945549E-1,3.665488E-1,3.4181935E-1,-1.4928284E-1,3.8378203E-1,8.0468655E-1],"split_indices":[2,0,0,2,2,2,2,0,0,0,0,0,0,1,0,1,6,6,1,4,6,9,4,6,1,1,1,0,5,1,9,0,5,4,1,8,4,2,7,1,1,7,1,2,6,2,1,10,9,6,8,2,6,8,4,6,5,0,0,6,2,0,1,0,0,0,0,0,0,0,0,0,0,0,0,0,0,0,0,0,0,0,0,0,0,0,0,0,0,0,0,0,0,0,0,0,0,0,0,0,0,0,0,0,0,0,0,0,0,0,0,0,0,0,0,0,0,0,0,0,0,0,0,0,0],"split_type":[0,0,0,0,0,0,0,0,0,0,0,0,0,0,0,0,0,0,0,0,0,0,0,0,0,0,0,0,0,0,0,0,0,0,0,0,0,0,0,0,0,0,0,0,0,0,0,0,0,0,0,0,0,0,0,0,0,0,0,0,0,0,0,0,0,0,0,0,0,0,0,0,0,0,0,0,0,0,0,0,0,0,0,0,0,0,0,0,0,0,0,0,0,0,0,0,0,0,0,0,0,0,0,0,0,0,0,0,0,0,0,0,0,0,0,0,0,0,0,0,0,0,0,0,0],"sum_hessian":[5.284E3,2.739E3,2.545E3,1.25E3,1.489E3,1.383E3,1.162E3,4.63E2,7.87E2,5.92E2,8.97E2,5.56E2,8.27E2,5.23E2,6.39E2,1.71E2,2.92E2,2.34E2,5.53E2,3.89E2,2.03E2,6.06E2,2.91E2,1.9E2,3.66E2,3.29E2,4.98E2,3.83E2,1.4E2,4.99E2,1.4E2,9.4E1,7.7E1,8.4E1,2.08E2,4.6E1,1.88E2,2.54E2,2.99E2,3.18E2,7.1E1,1.68E2,3.5E1,1.41E2,4.65E2,1.38E2,1.53E2,1.02E2,8.8E1,2.1E2,1.56E2,1.79E2,1.5E2,2.15E2,2.83E2,3.14E2,6.9E1,5E0,1.35E2,2.65E2,2.34E2,8.8E1,5.2E1,7.4E1,3E0,6.5E1,1.9E1,1.35E2,7.3E1,3.1E1,1.5E1,1.56E2,3.2E1,1.47E2,1.07E2,1.19E2,1.8E2,8.5E1,2.33E2,5.2E1,1.9E1,6.8E1,1E2,1.7E1,1.8E1,1E2,4.1E1,1.15E2,3.5E2,1.09E2,2.9E1,1.39E2,1.4E1,1.1E1,9.1E1,5.7E1,3.1E1,1.22E2,8.8E1,1.12E2,4.4E1,5.4E1,1.25E2,1.19E2,3.1E1,1.51E2,6.4E1,1.44E2,1.39E2,2.95E2,1.9E1,4E0,6.5E1,1E0,4E0,1.04E2,3.1E1,1.48E2,1.17E2,1.39E2,9.5E1,8.3E1,5E0,4.1E1,1.1E1],"tree_param":{"num_deleted":"0","num_feature":"11","num_nodes":"125","size_leaf_vector":"1"}},{"base_weights":[2.2129372E-3,-8.258745E-1,1.3627595E0,-1.3524675E0,2.0345083E-1,2.3924325E-1,1.8961704E0,-1.97943E0,-6.1579776E-1,-3.2367957E-1,1.0640742E0,-8.507297E-1,4.4079927E-1,1.4068987E0,2.5933602E0,-2.5434768E0,-1.3793182E0,-8.232021E-1,3.7469968E-1,-5.5239594E-1,6.675687E-1,7.4481046E-1,1.9769547E0,-1.3110275E0,-2.4878065E-1,1.3226311E-1,1.1323818E0,3.684329E-1,1.5989459E0,1.9420675E0,3.1195242E0,-3.1496415E0,-2.1181526E0,-2.088276E0,-1.0502577E0,-1.4664493E0,-5.110376E-1,-7.944475E-2,1.2388982E0,-8.8257396E-1,2.0139472E-1,3.82099E-1,2.131097E0,3.2363948E-1,1.205941E0,1.4981751E0,3.5257273E0,-1.7789019E0,-5.935793E-1,-6.300539E-1,7.3820376E-1,-4.878561E-2,1.9079343E0,8.041502E-1,1.7744852E0,1.6153298E-1,2.0120943E0,1.1833906E0,2.0468607E0,1.3484138E0,2.7339494E0,2.2152648E0,3.4446952E0,-3.4075317E-1,-2.0380135E-1,-2.3840101E-1,-8.596193E-2,-2.4192739E-1,-5.4051876E-2,-2.0487766E-1,-8.343687E-2,-2.1033075E-1,-9.582086E-2,-9.3292385E-2,5.3606736E-3,-8.7301664E-2,5.6657374E-2,6.6569336E-2,3.4762433E-1,-1.1337366E-1,1.5637157E-2,-3.7763722E-2,8.124953E-2,-3.1526532E-2,8.6973995E-2,7.256338E-1,1.2096854E-1,4.672758E-3,1.19474374E-1,6.461895E-2,1.9085613E-1,5.1773256E-1,1.2525712E-1,2.1238852E-1,5.416102E-1,-2.1286464E-1,-1.2579563E-2,-9.028023E-2,7.6202855E-2,-1.528116E-1,3.009224E-3,-2.569224E-2,1.392273E-1,-1.1542358E-1,7.222434E-3,9.330484E-2,3.9501357E-1,3.173735E-2,1.1587334E-1,1.1642623E-1,2.2645365E-1,-2.2834867E-2,9.685426E-2,2.81744E-2,2.4583948E-1,7.12002E-2,1.6401863E-1,1.7897369E-1,3.167047E-1,8.682441E-2,2.1745937E-1,6.918124E-1,2.588364E-1,1.5660055E-1,2.8903002E-1,2.6382053E-1,3.9375886E-1],"categories":[],"categories_nodes":[],"categories_segments":[],"categories_sizes":[],"default_left":[0,0,0,0,0,0,0,0,0,0,0,0,0,0,0,0,0,0,0,0,0,0,0,0,0,0,0,0,0,0,0,0,0,0,0,0,0,0,0,0,0,0,0,0,0,0,0,0,0,0,0,0,0,0,0,0,0,0,0,0,0,0,0,0,0,0,0,0,0,0,0,0,0,0,0,0,0,0,0,0,0,0,0,0,0,0,0,0,0,0,0,0,0,0,0,0,0,0,0,0,0,0,0,0,0,0,0,0,0,0,0,0,0,0,0,0,0,0,0,0,0,0,0,0,0,0,0],"id":6,"left_children":[1,3,5,7,9,11,13,15,17,19,21,23,25,27,29,31,33,35,37,39,41,43,45,47,49,51,53,55,57,59,61,63,65,67,69,71,73,75,77,79,81,83,85,87,89,91,93,95,97,99,101,103,105,107,109,111,113,115,117,119,121,123,125,-1,-1,-1,-1,-1,-1,-1,-1,-1,-1,-1,-1,-1,-1,-1,-1,-1,-1,-1,-1,-1,-1,-1,-1,-1,-1,-1,-1,-1,-1,-1,-1,-1,-1,-1,-1,-1,-1,-1,-1,-1,-1,-1,-1,-1,-1,-1,-1,-1,-1,-1,-1,-1,-1,-1,-1,-1,-1,-1,-1,-1,-1,-1,-1],"loss_changes":[5.9554785E3,1.7814038E3,1.198138E3,1.002874E3,5.052688E2,1.4207542E2,4.5890332E2,3.9388037E2,2.0594736E2,1.5702863E2,1.2181073E2,2.76585E1,1.16141365E2,1.5875903E2,1.8516089E2,1.4904956E2,1.3101526E2,1.6551202E2,6.838838E1,1.4005116E2,5.349879E1,6.078737E1,7.554361E1,1.807759E1,1.7399092E1,1.21613655E2,3.3980484E1,4.252423E1,1.2303174E2,1.147796E2,8.2638916E1,6.386499E1,1.1773389E2,9.0907166E1,8.279373E1,8.537744E1,1.332126E2,5.945077E1,7.4633316E1,1.0220651E2,6.116847E1,3.7681175E1,9.039368E1,3.998655E1,5.7760605E1,7.0322235E1,5.474701E1,1.9389824E1,1.0748403E1,1.9610107E1,8.819164E0,4.6100407E1,6.59963E1,1.9136375E1,1.4109741E1,3.5775284E1,1.0118954E1,7.4627716E1,8.736438E1,5.6031067E1,4.727295E1,3.2288757E1,7.8654785E1,0E0,0E0,0E0,0E0,0E0,0E0,0E0,0E0,0E0,0E0,0E0,0E0,0E0,0E0,0E0,0E0,0E0,0E0,0E0,0E0,0E0,0E0,0E0,0E0,0E0,0E0,0E0,0E0,0E0,0E0,0E0,0E0,0E0,0E0,0E0,0E0,0E0,0E0,0E0,0E0,0E0,0E0,0E0,0E0,0E0,0E0,0E0,0E0,0E0,0E0,0E0,0E0,0E0,0E0,0E0,0E0,0E0,0E0,0E0,0E0,0E0,0E0,0E0,0E0],"parents":[2147483647,0,0,1,1,2,2,3,3,4,4,5,5,6,6,7,7,8,8,9,9,10,10,11,11,12,12,13,13,14,14,15,15,16,16,17,17,18,18,19,19,20,20,21,21,22,22,23,23,24,24,25,25,26,26,27,27,28,28,29,29,30,30,31,31,32,32,33,33,34,34,35,35,36,36,37,37,38,38,39,39,40,40,41,41,42,42,43,43,44,44,45,45,46,46,47,47,48,48,49,49,50,50,51,51,52,52,53,53,54,54,55,55,56,56,57,57,58,58,59,59,60,60,61,61,62,62],"right_children":[2,4,6,8,10,12,14,16,18,20,22,24,26,28,30,32,34,36,38,40,42,44,46,48,50,52,54,56,58,60,62,64,66,68,70,72,74,76,78,80,82,84,86,88,90,92,94,96,98,100,102,104,106,108,110,112,114,116,118,120,122,124,126,-1,-1,-1,-1,-1,-1,-1,-1,-1,-1,-1,-1,-1,-1,-1,-1,-1,-1,-1,-1,-1,-1,-1,-1,-1,-1,-1,-1,-1,-1,-1,-1,-1,-1,-1,-1,-1,-1,-1,-1,-1,-1,-1,-1,-1,-1,-1,-1,-1,-1,-1,-1,-1,-1,-1,-1,-1,-1,-1,-1,-1,-1,-1,-1],"split_conditions":[4.339576E-1,4.924726E-1,-3.472692E-1,-5.198105E-1,-3.4639814E-1,-1.5229077E0,6.6042095E-1,-3.472692E-1,1.1811988E0,1.6681111E0,8.33086E-1,1.3010195E0,1.3877257E0,-1.1859686E0,2.7708095E-1,-1.2134601E0,-1.3001662E0,-6.831659E-1,1.3449776E0,7.6346344E-1,1.6227571E0,1.0290286E-1,1.5001627E0,-7.200745E-2,1.0648023E0,2.069176E0,4.8497313E-1,1.6478443E0,4.2292956E-1,4.2292956E-1,-6.28988E-1,1.6227571E0,1.876928E0,1.2460527E0,-2.5255087E-1,-2.112526E-1,4.2292956E-1,2.7708095E-1,1.5657587E-1,1.2460527E0,-1.0400476E0,-2.3848761E-3,-1.5340815E0,1.5001627E0,4.2292956E-1,-1.3758352E0,4.2292956E-1,1.876928E0,1.6227571E0,-2.0267527E0,1.0290286E-1,2.8424218E-1,7.6346344E-1,1.0290286E-1,8.2502216E-1,1.3449776E0,2.7708095E-1,2.761054E-1,1.6227571E0,1.0648023E0,-1.5340815E0,1.0648023E0,8.2502216E-1,-3.4075317E-1,-2.0380135E-1,-2.3840101E-1,-8.596193E-2,-2.4192739E-1,-5.4051876E-2,-2.0487766E-1,-8.343687E-2,-2.1033075E-1,-9.582086E-2,-9.3292385E-2,5.3606736E-3,-8.7301664E-2,5.6657374E-2,6.6569336E-2,3.4762433E-1,-1.1337366E-1,1.5637157E-2,-3.7763722E-2,8.124953E-2,-3.1526532E-2,8.6973995E-2,7.256338E-1,1.2096854E-1,4.672758E-3,1.19474374E-1,6.461895E-2,1.9085613E-1,5.1773256E-1,1.2525712E-1,2.1238852E-1,5.416102E-1,-2.1286464E-1,-1.2579563E-2,-9.028023E-2,7.6202855E-2,-1.528116E-1,3.009224E-3,-2.569224E-2,1.392273E-1,-1.1542358E-1,7.222434E-3,9.330484E-2,3.9501357E-1,3.173735E-2,1.1587334E-1,1.1642623E-1,2.2645365E-1,-2.2834867E-2,9.685426E-2,2.81744E-2,2.4583948E-1,7.12002E-2,1.6401863E-1,1.7897369E-1,3.167047E-1,8.682441E-2,2.1745937E-1,6.918124E-1,2.588364E-1,1.5660055E-1,2.8903002E-1,2.6382053E-1,3.9375886E-1],"split_indices":[2,0,0,2,2,0,0,0,1,0,1,2,2,1,7,2,2,0,8,1,7,4,0,1,9,6,1,2,6,6,1,7,4,6,9,1,6,7,0,6,2,1,1,0,6,5,6,4,7,0,4,10,1,4,3,8,7,1,7,9,1,9,3,0,0,0,0,0,0,0,0,0,0,0,0,0,0,0,0,0,0,0,0,0,0,0,0,0,0,0,0,0,0,0,0,0,0,0,0,0,0,0,0,0,0,0,0,0,0,0,0,0,0,0,0,0,0,0,0,0,0,0,0,0,0,0,0],"split_type":[0,0,0,0,0,0,0,0,0,0,0,0,0,0,0,0,0,0,0,0,0,0,0,0,0,0,0,0,0,0,0,0,0,0,0,0,0,0,0,0,0,0,0,0,0,0,0,0,0,0,0,0,0,0,0,0,0,0,0,0,0,0,0,0,0,0,0,0,0,0,0,0,0,0,0,0,0,0,0,0,0,0,0,0,0,0,0,0,0,0,0,0,0,0,0,0,0,0,0,0,0,0,0,0,0,0,0,0,0,0,0,0,0,0,0,0,0,0,0,0,0,0,0,0,0,0,0],"sum_hessian":[5.284E3,3.285E3,1.999E3,2.173E3,1.112E3,6.44E2,1.355E3,1.173E3,1E3,6.9E2,4.22E2,1E2,5.44E2,7.98E2,5.57E2,6.03E2,5.7E2,8.27E2,1.73E2,5.61E2,1.29E2,3.14E2,1.08E2,5.6E1,4.4E1,3.77E2,1.67E2,1.25E2,6.73E2,2.51E2,3.06E2,2.46E2,3.57E2,1.79E2,3.91E2,2.69E2,5.58E2,1.14E2,5.9E1,3.9E2,1.71E2,1.09E2,2E1,1.65E2,1.49E2,8.4E1,2.4E1,3.3E1,2.3E1,3.2E1,1.2E1,3.43E2,3.4E1,1.12E2,5.5E1,1.12E2,1.3E1,3.51E2,3.22E2,1.45E2,1.06E2,8.3E1,2.23E2,1.98E2,4.8E1,2.94E2,6.3E1,1.47E2,3.2E1,6.8E1,3.23E2,1.18E2,1.51E2,3.19E2,2.39E2,5.1E1,6.3E1,4.8E1,1.1E1,3.14E2,7.6E1,8.8E1,8.3E1,4.5E1,6.4E1,2E0,1.8E1,1.26E2,3.9E1,8.4E1,6.5E1,4E0,8E1,1.5E1,9E0,2.7E1,6E0,1.9E1,4E0,1.3E1,1.9E1,5E0,7E0,3.3E1,3.1E2,2.4E1,1E1,4.8E1,6.4E1,2.6E1,2.9E1,7.6E1,3.6E1,3E0,1E1,1.74E2,1.77E2,2.64E2,5.8E1,9.3E1,5.2E1,2E0,1.04E2,4.4E1,3.9E1,8.7E1,1.36E2],"tree_param":{"num_deleted":"0","num_feature":"11","num_nodes":"127","size_leaf_vector":"1"}},{"base_weights":[2.9739605E-3,-9.729143E-1,9.469005E-1,-1.7212371E0,-3.3968127E-1,3.9076453E-1,1.8190117E0,-2.4139907E0,-1.2773374E0,-1.0629342E0,-1.5576608E-2,-1.6847274E-1,8.9207697E-1,1.4009436E0,2.5854497E0,-2.8643951E0,-1.8603569E0,-1.9444137E0,-9.921169E-1,-1.3732588E0,-1.6374719E-1,-2.1521018E-1,1.1460367E0,-9.405817E-1,1.5589502E-1,-1.15857325E-1,1.1000019E0,1.0331838E0,2.0523467E0,2.014189E0,3.139647E0,-3.5834541E0,-2.4195511E0,-2.725454E0,-1.2192675E0,-3.0155299E0,-1.6466477E0,-1.4406035E0,-6.1241084E-1,-1.713992E0,-9.76416E-1,-8.641651E-1,2.1706988E-1,-5.951257E-1,3.4738865E-1,5.129197E-1,2.2114635E0,-1.1863704E0,-3.249112E-1,-3.0311725E-1,7.0023674E-1,-3.7168062E-1,7.280151E-1,6.6841054E-1,1.4046348E0,5.9386617E-1,1.5344999E0,1.5764836E0,2.878008E0,1.8284658E0,3.5308127E0,2.7859256E0,4.874343E0,-4.3509427E-1,-3.306857E-1,-2.8121012E-1,-1.9007112E-1,-3.607286E-1,-2.1919356E-1,1.9574706E-1,-1.4872335E-1,-3.4670937E-1,-1.9521542E-1,-1.832635E-1,-6.2469047E-2,-7.722584E-2,-1.925003E-1,-1.21768914E-1,-2.2300886E-2,-2.004195E-1,-9.1650106E-2,-1.3911347E-1,-2.8030053E-2,-1.13619916E-1,8.6672716E-2,-2.5939016E-2,6.752791E-2,-8.150451E-2,3.085771E-2,-6.081171E-2,6.1491728E-2,-1.7053721E-2,1.1852264E-1,6.3426155E-1,1.836742E-1,-1.5963611E-1,-7.25034E-2,-7.06115E-2,3.0337615E-2,-6.918197E-2,1.2877989E-2,6.362559E-3,1.2736693E-1,-1.3318871E-1,-1.9152349E-2,4.944229E-4,1.5863529E-1,-9.206119E-3,9.234437E-2,1.1436313E-1,2.1209095E-1,8.966505E-3,8.756211E-2,8.772838E-2,2.0100836E-1,1.2554456E-1,3.010714E-1,2.3282741E-1,4.246953E-1,1.3225742E-1,2.2618406E-1,-2.9133376E-1,4.050673E-1,1.668581E-1,3.0608162E-1,3.4959453E-1,9.805276E-1],"categories":[],"categories_nodes":[],"categories_segments":[],"categories_sizes":[],"default_left":[0,0,0,0,0,0,0,0,0,0,0,0,0,0,0,0,0,0,0,0,0,0,0,0,0,0,0,0,0,0,0,0,0,0,0,0,0,0,0,0,0,0,0,0,0,0,0,0,0,0,0,0,0,0,0,0,0,0,0,0,0,0,0,0,0,0,0,0,0,0,0,0,0,0,0,0,0,0,0,0,0,0,0,0,0,0,0,0,0,0,0,0,0,0,0,0,0,0,0,0,0,0,0,0,0,0,0,0,0,0,0,0,0,0,0,0,0,0,0,0,0,0,0,0,0,0,0],"id":7,"left_children":[1,3,5,7,9,11,13,15,17,19,21,23,25,27,29,31,33,35,37,39,41,43,45,47,49,51,53,55,57,59,61,63,65,67,69,71,73,75,77,79,81,83,85,87,89,91,93,95,97,99,101,103,105,107,109,111,113,115,117,119,121,123,125,-1,-1,-1,-1,-1,-1,-1,-1,-1,-1,-1,-1,-1,-1,-1,-1,-1,-1,-1,-1,-1,-1,-1,-1,-1,-1,-1,-1,-1,-1,-1,-1,-1,-1,-1,-1,-1,-1,-1,-1,-1,-1,-1,-1,-1,-1,-1,-1,-1,-1,-1,-1,-1,-1,-1,-1,-1,-1,-1,-1,-1,-1,-1,-1],"loss_changes":[4.869287E3,1.2309846E3,1.3025173E3,3.6316455E2,3.302666E2,4.6048932E2,3.3154077E2,1.1037402E2,1.3658289E2,1.21436554E2,2.2611436E2,1.9474416E2,1.8161908E2,1.6054077E2,1.1018164E2,7.2576416E1,1.13698425E2,6.4244934E1,8.63078E1,4.21369E1,3.0328197E1,1.7803844E2,9.532489E1,3.441925E1,1.3713525E2,3.2437042E1,9.346161E1,9.5112E1,9.133081E1,4.5371765E1,9.993616E1,5.7790527E0,2.724237E1,3.396527E1,1.07615906E2,1.5320068E1,3.1547363E1,7.426996E1,6.54878E1,3.8201263E1,4.3491272E1,1.9819239E1,1.6330719E1,9.902612E1,8.626399E1,4.2015945E1,7.0395874E1,2.9862122E1,1.6261086E1,5.011717E1,9.15474E1,1.9638538E1,2.1714521E1,5.8074738E1,7.6093506E1,3.316378E1,6.1686493E1,6.8509674E1,5.6336853E1,3.3402466E1,7.545207E1,4.280774E1,1.6962494E2,0E0,0E0,0E0,0E0,0E0,0E0,0E0,0E0,0E0,0E0,0E0,0E0,0E0,0E0,0E0,0E0,0E0,0E0,0E0,0E0,0E0,0E0,0E0,0E0,0E0,0E0,0E0,0E0,0E0,0E0,0E0,0E0,0E0,0E0,0E0,0E0,0E0,0E0,0E0,0E0,0E0,0E0,0E0,0E0,0E0,0E0,0E0,0E0,0E0,0E0,0E0,0E0,0E0,0E0,0E0,0E0,0E0,0E0,0E0,0E0,0E0,0E0,0E0,0E0],"parents":[2147483647,0,0,1,1,2,2,3,3,4,4,5,5,6,6,7,7,8,8,9,9,10,10,11,11,12,12,13,13,14,14,15,15,16,16,17,17,18,18,19,19,20,20,21,21,22,22,23,23,24,24,25,25,26,26,27,27,28,28,29,29,30,30,31,31,32,32,33,33,34,34,35,35,36,36,37,37,38,38,39,39,40,40,41,41,42,42,43,43,44,44,45,45,46,46,47,47,48,48,49,49,50,50,51,51,52,52,53,53,54,54,55,55,56,56,57,57,58,58,59,59,60,60,61,61,62,62],"right_children":[2,4,6,8,10,12,14,16,18,20,22,24,26,28,30,32,34,36,38,40,42,44,46,48,50,52,54,56,58,60,62,64,66,68,70,72,74,76,78,80,82,84,86,88,90,92,94,96,98,100,102,104,106,108,110,112,114,116,118,120,122,124,126,-1,-1,-1,-1,-1,-1,-1,-1,-1,-1,-1,-1,-1,-1,-1,-1,-1,-1,-1,-1,-1,-1,-1,-1,-1,-1,-1,-1,-1,-1,-1,-1,-1,-1,-1,-1,-1,-1,-1,-1,-1,-1,-1,-1,-1,-1,-1,-1,-1,-1,-1,-1,-1,-1,-1,-1,-1,-1,-1,-1,-1,-1,-1,-1],"split_conditions":[4.266391E-4,-1.1372489E-2,3.2452422E-1,-1.0400476E0,-1.1267539E0,8.6748856E-1,1.1276071E0,6.72377E-2,-1.0190626E0,1.164266E0,1.5001627E0,-8.511143E-1,-1.187011E0,1.164266E0,1.3686027E-1,-8.511143E-1,8.2502216E-1,-4.0019363E-1,-7.200745E-2,4.2292956E-1,2.7708095E-1,1.0648023E0,4.2292956E-1,8.33086E-1,4.2292956E-1,1.2460527E0,8.2502216E-1,6.72377E-2,1.0648023E0,1.8360595E0,1.6227571E0,-1.5602849E0,1.0648023E0,-8.511143E-1,2.0648284E-1,1.3449776E0,1.876928E0,-1.5065298E-2,2.7708095E-1,-1.3001662E0,6.242183E-1,1.1115763E0,1.0648023E0,1.2460527E0,-4.0019363E-1,-7.200745E-2,-1.5340815E0,4.2292956E-1,1.0648023E0,6.72377E-2,-1.4163002E-1,-2.0267527E0,1.0648023E0,-4.0019363E-1,7.6346344E-1,4.339576E-1,2.7708095E-1,1.2460527E0,8.6748856E-1,1.4744319E0,-1.5340815E0,-4.0019363E-1,1.3449776E0,-4.3509427E-1,-3.306857E-1,-2.8121012E-1,-1.9007112E-1,-3.607286E-1,-2.1919356E-1,1.9574706E-1,-1.4872335E-1,-3.4670937E-1,-1.9521542E-1,-1.832635E-1,-6.2469047E-2,-7.722584E-2,-1.925003E-1,-1.21768914E-1,-2.2300886E-2,-2.004195E-1,-9.1650106E-2,-1.3911347E-1,-2.8030053E-2,-1.13619916E-1,8.6672716E-2,-2.5939016E-2,6.752791E-2,-8.150451E-2,3.085771E-2,-6.081171E-2,6.1491728E-2,-1.7053721E-2,1.1852264E-1,6.3426155E-1,1.836742E-1,-1.5963611E-1,-7.25034E-2,-7.06115E-2,3.0337615E-2,-6.918197E-2,1.2877989E-2,6.362559E-3,1.2736693E-1,-1.3318871E-1,-1.9152349E-2,4.944229E-4,1.5863529E-1,-9.206119E-3,9.234437E-2,1.1436313E-1,2.1209095E-1,8.966505E-3,8.756211E-2,8.772838E-2,2.0100836E-1,1.2554456E-1,3.010714E-1,2.3282741E-1,4.246953E-1,1.3225742E-1,2.2618406E-1,-2.9133376E-1,4.050673E-1,1.668581E-1,3.0608162E-1,3.4959453E-1,9.805276E-1],"split_indices":[2,0,0,2,2,2,2,1,0,0,0,0,0,0,1,0,3,6,1,6,7,9,6,1,6,6,3,1,9,0,7,2,9,0,1,8,4,5,7,2,1,1,9,6,6,1,1,6,9,1,1,0,9,6,1,2,7,6,2,2,1,6,8,0,0,0,0,0,0,0,0,0,0,0,0,0,0,0,0,0,0,0,0,0,0,0,0,0,0,0,0,0,0,0,0,0,0,0,0,0,0,0,0,0,0,0,0,0,0,0,0,0,0,0,0,0,0,0,0,0,0,0,0,0,0,0,0],"split_type":[0,0,0,0,0,0,0,0,0,0,0,0,0,0,0,0,0,0,0,0,0,0,0,0,0,0,0,0,0,0,0,0,0,0,0,0,0,0,0,0,0,0,0,0,0,0,0,0,0,0,0,0,0,0,0,0,0,0,0,0,0,0,0,0,0,0,0,0,0,0,0,0,0,0,0,0,0,0,0,0,0,0,0,0,0,0,0,0,0,0,0,0,0,0,0,0,0,0,0,0,0,0,0,0,0,0,0,0,0,0,0,0,0,0,0,0,0,0,0,0,0,0,0,0,0,0,0],"sum_hessian":[5.284E3,2.598E3,2.686E3,1.19E3,1.408E3,1.641E3,1.045E3,4.63E2,7.27E2,4.35E2,9.73E2,7.76E2,8.65E2,6.78E2,3.67E2,2.53E2,2.1E2,2.16E2,5.11E2,3.23E2,1.12E2,8.31E2,1.42E2,2.29E2,5.47E2,1.48E2,7.17E2,4.35E2,2.43E2,1.83E2,1.84E2,9.4E1,1.59E2,8.8E1,1.22E2,4.5E1,1.71E2,2.33E2,2.78E2,1.72E2,1.51E2,3.9E1,7.3E1,4.96E2,3.35E2,9E1,5.2E1,1.63E2,6.6E1,2.97E2,2.5E2,1.14E2,3.4E1,2.98E2,4.19E2,2.33E2,2.02E2,1.56E2,8.7E1,1.65E2,1.8E1,1.55E2,2.9E1,2.1E1,7.3E1,8.8E1,7.1E1,3.1E1,5.7E1,9E0,1.13E2,3E1,1.5E1,1.44E2,2.7E1,9.9E1,1.34E2,1.08E2,1.7E2,1.25E2,4.7E1,9.4E1,5.7E1,3.4E1,5E0,3.6E1,3.7E1,3.99E2,9.7E1,7.3E1,2.62E2,4.5E1,4.5E1,3E0,4.9E1,8.5E1,7.8E1,4.1E1,2.5E1,1.56E2,1.41E2,1.19E2,1.31E2,1.7E1,9.7E1,1.9E1,1.5E1,7.5E1,2.23E2,3.09E2,1.1E2,8.4E1,1.49E2,8.6E1,1.16E2,1.29E2,2.7E1,6.4E1,2.3E1,7.8E1,8.7E1,1E0,1.7E1,3.2E1,1.23E2,2.4E1,5E0],"tree_param":{"num_deleted":"0","num_feature":"11","num_nodes":"127","size_leaf_vector":"1"}},{"base_weights":[2.9447435E-3,-6.446916E-1,1.1695123E0,-1.1362722E0,9.4964005E-2,2.2759806E-1,1.6106055E0,-1.6975415E0,-5.3343457E-1,-4.3228528E-1,6.8540084E-1,1.1172507E-1,1.5959737E0,1.4058926E0,2.782999E0,-2.2632167E0,-1.3327022E0,-1.5925465E0,-3.9314637E-1,-6.091806E-1,5.102935E-1,4.6704337E-1,1.5401211E0,-3.1660601E-1,5.3054655E-1,9.224154E-1,3.2866328E0,1.1632649E0,1.9465686E0,2.382003E0,3.9196537E0,-4.5622463E0,-2.134609E0,-1.5395601E0,-3.7608606E-1,-2.9516017E0,-1.2928208E0,-6.0333544E-1,4.3558097E-1,-8.0690026E-1,1.7944127E-2,2.5953144E-1,1.9258454E0,9.053476E-3,7.9065937E-1,1.1714523E0,2.9697404E0,-9.7910446E-1,-5.0676826E-2,-3.0805767E-1,7.038844E-1,1.8308306E0,6.299248E-1,9.225575E0,1.3681363E0,7.6677907E-1,1.4918177E0,1.5959873E0,2.8396096E0,1.8016189E0,3.1111887E0,2.8245993E0,6.1404667E0,-4.6694884E-1,-1.2087021E-1,2.4000626E-2,-2.2229591E-1,-2.3681557E-1,-1.21535204E-1,-7.87616E-2,8.8566296E-2,-3.0648223E-1,-4.0020753E-2,-1.5376525E-1,-4.4889238E-2,-8.023184E-2,1.9264162E-2,-5.8411207E-2,7.092435E-2,-1.5415718E-1,-5.959159E-2,-5.2590996E-2,5.398048E-2,-3.4757737E-2,6.842199E-2,1.6565578E-2,5.12525E-1,-2.159393E-2,9.035817E-2,3.2089736E-2,1.09346725E-1,4.8992753E-2,1.6744305E-1,2.0770085E-1,9.1216815E-1,-2.0287798E-1,-6.58568E-2,-3.0826256E-2,5.0618567E-2,-7.835119E-2,1.7971894E-2,2.9265974E-2,9.7790204E-2,-8.205033E-3,2.1158206E-1,2.9988322E-2,1.04499E-1,1.3493919E0,3.444443E-2,-3.909092E-2,2.076642E-1,3.9709747E-2,1.4091034E-1,1.0581384E-1,1.9330654E-1,7.465369E-2,1.7885911E-1,3.439847E-1,1.6791952E-1,2.0036271E-1,-3.174105E-2,2.6893422E-1,6.6001993E-1,5.8027267E-2,2.8750253E-1,1.1033033E0,3.3583486E-1],"categories":[],"categories_nodes":[],"categories_segments":[],"categories_sizes":[],"default_left":[0,0,0,0,0,0,0,0,0,0,0,0,0,0,0,0,0,0,0,0,0,0,0,0,0,0,0,0,0,0,0,0,0,0,0,0,0,0,0,0,0,0,0,0,0,0,0,0,0,0,0,0,0,0,0,0,0,0,0,0,0,0,0,0,0,0,0,0,0,0,0,0,0,0,0,0,0,0,0,0,0,0,0,0,0,0,0,0,0,0,0,0,0,0,0,0,0,0,0,0,0,0,0,0,0,0,0,0,0,0,0,0,0,0,0,0,0,0,0,0,0,0,0,0,0,0,0],"id":8,"left_children":[1,3,5,7,9,11,13,15,17,19,21,23,25,27,29,31,33,35,37,39,41,43,45,47,49,51,53,55,57,59,61,63,65,67,69,71,73,75,77,79,81,83,85,87,89,91,93,95,97,99,101,103,105,107,109,111,113,115,117,119,121,123,125,-1,-1,-1,-1,-1,-1,-1,-1,-1,-1,-1,-1,-1,-1,-1,-1,-1,-1,-1,-1,-1,-1,-1,-1,-1,-1,-1,-1,-1,-1,-1,-1,-1,-1,-1,-1,-1,-1,-1,-1,-1,-1,-1,-1,-1,-1,-1,-1,-1,-1,-1,-1,-1,-1,-1,-1,-1,-1,-1,-1,-1,-1,-1,-1],"loss_changes":[3.9936328E3,1.2359852E3,7.836289E2,6.900139E2,4.2305173E2,9.543203E1,3.0449268E2,2.1512817E2,1.4587466E2,1.2002861E2,1.1891345E2,1.00090576E2,5.0489975E1,1.415122E2,7.726416E1,1.1237427E2,1.2705603E2,4.3028595E1,1.5215598E2,7.503137E1,3.9966377E1,7.587782E1,6.503836E1,4.8575417E1,4.1208885E1,8.146317E0,1.354981E2,9.772839E1,1.0129016E2,5.4913513E1,9.938745E1,1.9084473E0,8.2983765E1,1.3949963E2,6.093028E1,4.550827E0,1.914531E1,1.1039105E2,4.9806446E1,7.038327E1,4.172103E1,2.5505363E1,9.488748E1,4.3064007E1,4.2323395E1,3.5172836E1,1.2384706E2,2.5244186E1,2.8557121E1,1.1504672E1,2.6081589E1,4.5348206E0,3.5223093E0,1.0907526E2,1.4521011E1,8.160007E1,7.717761E1,3.8748535E1,5.9697083E1,3.5737E1,7.350305E1,2.1795654E0,1.6712268E2,0E0,0E0,0E0,0E0,0E0,0E0,0E0,0E0,0E0,0E0,0E0,0E0,0E0,0E0,0E0,0E0,0E0,0E0,0E0,0E0,0E0,0E0,0E0,0E0,0E0,0E0,0E0,0E0,0E0,0E0,0E0,0E0,0E0,0E0,0E0,0E0,0E0,0E0,0E0,0E0,0E0,0E0,0E0,0E0,0E0,0E0,0E0,0E0,0E0,0E0,0E0,0E0,0E0,0E0,0E0,0E0,0E0,0E0,0E0,0E0,0E0,0E0,0E0,0E0],"parents":[2147483647,0,0,1,1,2,2,3,3,4,4,5,5,6,6,7,7,8,8,9,9,10,10,11,11,12,12,13,13,14,14,15,15,16,16,17,17,18,18,19,19,20,20,21,21,22,22,23,23,24,24,25,25,26,26,27,27,28,28,29,29,30,30,31,31,32,32,33,33,34,34,35,35,36,36,37,37,38,38,39,39,40,40,41,41,42,42,43,43,44,44,45,45,46,46,47,47,48,48,49,49,50,50,51,51,52,52,53,53,54,54,55,55,56,56,57,57,58,58,59,59,60,60,61,61,62,62],"right_children":[2,4,6,8,10,12,14,16,18,20,22,24,26,28,30,32,34,36,38,40,42,44,46,48,50,52,54,56,58,60,62,64,66,68,70,72,74,76,78,80,82,84,86,88,90,92,94,96,98,100,102,104,106,108,110,112,114,116,118,120,122,124,126,-1,-1,-1,-1,-1,-1,-1,-1,-1,-1,-1,-1,-1,-1,-1,-1,-1,-1,-1,-1,-1,-1,-1,-1,-1,-1,-1,-1,-1,-1,-1,-1,-1,-1,-1,-1,-1,-1,-1,-1,-1,-1,-1,-1,-1,-1,-1,-1,-1,-1,-1,-1,-1,-1,-1,-1,-1,-1,-1,-1,-1,-1,-1,-1],"split_conditions":[5.206638E-1,3.2452422E-1,-3.472692E-1,-5.198105E-1,-5.198105E-1,2.069176E0,1.3322144E0,-6.831659E-1,-1.3549594E0,1.6681111E0,1.5001627E0,1.2143134E0,7.6346344E-1,1.3877257E0,1.1115763E0,-2.1947012E0,1.876928E0,-9.0747833E-1,1.0419537E0,9.7233117E-1,1.6227571E0,-2.8087518E-1,1.876928E0,-1.187011E0,-1.5229077E0,-1.1859686E0,8.33086E-1,-1.4163002E-1,6.6042095E-1,1.0290286E-1,1.0648023E0,2.0260894E0,-2.0267527E0,-7.682332E-1,7.6346344E-1,2.0260894E0,1.876928E0,1.2460527E0,-2.5255087E-1,-2.5255087E-1,-1.1267539E0,-2.3848761E-3,-9.533415E-1,1.2460527E0,2.7708095E-1,-2.112526E-1,1.4596891E0,-4.0019363E-1,1.3449776E0,1.0290286E-1,2.7708095E-1,-1.6908561E0,1.0648023E0,-8.511143E-1,-1.3549594E0,1.3449776E0,1.0290286E-1,-1.0467235E0,6.653196E-1,3.0025513E0,2.5078528E0,6.0737E-1,1.5001627E0,-4.6694884E-1,-1.2087021E-1,2.4000626E-2,-2.2229591E-1,-2.3681557E-1,-1.21535204E-1,-7.87616E-2,8.8566296E-2,-3.0648223E-1,-4.0020753E-2,-1.5376525E-1,-4.4889238E-2,-8.023184E-2,1.9264162E-2,-5.8411207E-2,7.092435E-2,-1.5415718E-1,-5.959159E-2,-5.2590996E-2,5.398048E-2,-3.4757737E-2,6.842199E-2,1.6565578E-2,5.12525E-1,-2.159393E-2,9.035817E-2,3.2089736E-2,1.09346725E-1,4.8992753E-2,1.6744305E-1,2.0770085E-1,9.1216815E-1,-2.0287798E-1,-6.58568E-2,-3.0826256E-2,5.0618567E-2,-7.835119E-2,1.7971894E-2,2.9265974E-2,9.7790204E-2,-8.205033E-3,2.1158206E-1,2.9988322E-2,1.04499E-1,1.3493919E0,3.444443E-2,-3.909092E-2,2.076642E-1,3.9709747E-2,1.4091034E-1,1.0581384E-1,1.9330654E-1,7.465369E-2,1.7885911E-1,3.439847E-1,1.6791952E-1,2.0036271E-1,-3.174105E-2,2.6893422E-1,6.6001993E-1,5.8027267E-2,2.8750253E-1,1.1033033E0,3.3583486E-1],"split_indices":[2,0,0,2,2,6,0,0,0,0,0,2,1,2,1,0,4,1,1,1,7,1,4,0,0,1,1,1,0,4,9,5,0,1,1,5,4,6,9,9,2,1,2,6,7,1,1,6,8,4,7,0,9,0,0,8,4,1,5,0,0,2,0,0,0,0,0,0,0,0,0,0,0,0,0,0,0,0,0,0,0,0,0,0,0,0,0,0,0,0,0,0,0,0,0,0,0,0,0,0,0,0,0,0,0,0,0,0,0,0,0,0,0,0,0,0,0,0,0,0,0,0,0,0,0,0,0],"split_type":[0,0,0,0,0,0,0,0,0,0,0,0,0,0,0,0,0,0,0,0,0,0,0,0,0,0,0,0,0,0,0,0,0,0,0,0,0,0,0,0,0,0,0,0,0,0,0,0,0,0,0,0,0,0,0,0,0,0,0,0,0,0,0,0,0,0,0,0,0,0,0,0,0,0,0,0,0,0,0,0,0,0,0,0,0,0,0,0,0,0,0,0,0,0,0,0,0,0,0,0,0,0,0,0,0,0,0,0,0,0,0,0,0,0,0,0,0,0,0,0,0,0,0,0,0,0,0],"sum_hessian":[5.284E3,3.398E3,1.886E3,2.041E3,1.357E3,6.02E2,1.284E3,1.056E3,9.85E2,7.17E2,6.4E2,5.56E2,4.6E1,1.095E3,1.89E2,4.12E2,6.44E2,1.14E2,8.71E2,6.04E2,1.13E2,5.11E2,1.29E2,2.75E2,2.81E2,3.4E1,1.2E1,7.58E2,3.37E2,1.42E2,4.7E1,2E1,3.92E2,5.29E2,1.15E2,1.9E1,9.5E1,6.95E2,1.76E2,4.59E2,1.45E2,9.7E1,1.6E1,2.12E2,2.99E2,1.04E2,2.5E1,7.8E1,1.97E2,4.8E1,2.33E2,7E0,2.7E1,2E0,1E1,3.45E2,4.13E2,2.44E2,9.3E1,8.1E1,6.1E1,3.3E1,1.4E1,1.9E1,1E0,1.4E1,3.78E2,1.47E2,3.82E2,8.7E1,2.8E1,1.8E1,1E0,7.3E1,2.2E1,5.56E2,1.39E2,3.7E1,1.39E2,1.01E2,3.58E2,7.1E1,7.4E1,4E1,5.7E1,1.1E1,5E0,1.7E2,4.2E1,1.18E2,1.81E2,4.5E1,5.9E1,2.3E1,2E0,1.7E1,6.1E1,1.35E2,6.2E1,2.4E1,2.4E1,9.4E1,1.39E2,1E0,6E0,1.6E1,1.1E1,1E0,1E0,3E0,7E0,2.2E2,1.25E2,2.1E2,2.03E2,4.6E1,1.98E2,6E1,3.3E1,7.4E1,7E0,5.6E1,5E0,1E0,3.2E1,4E0,1E1],"tree_param":{"num_deleted":"0","num_feature":"11","num_nodes":"127","size_leaf_vector":"1"}},{"base_weights":[3.78648E-3,-8.380739E-1,7.4164575E-1,-1.4741808E0,-3.019049E-1,3.328998E-1,1.5666666E0,-2.1789887E0,-1.1803565E0,-1.0221454E0,-7.4238844E-2,-1.4686263E-1,7.373007E-1,1.284759E0,2.408085E0,-2.409533E0,-1.139861E0,-1.8191379E0,-9.7530675E-1,-1.3436524E0,-1.9124705E-1,-4.6956846E-1,3.3143505E-1,-1.0909115E0,2.0539567E-2,3.0278152E-1,1.1299888E0,1.0177408E0,1.987335E0,2.0880582E0,3.9000132E0,-4.6941596E-1,-2.3308768E0,-2.0261407E0,-1.2695795E-1,-2.908014E0,-1.4486914E0,-1.1636482E0,-1.9316998E-1,-1.7146156E0,-8.9425963E-1,-6.960564E-1,3.402483E-1,-1.1604753E0,-2.0229535E-1,1.1116783E-1,1.5898814E0,-1.9722846E0,-8.407235E-1,-3.3767495E-1,4.5055E-1,1.8716452E-1,1.703876E0,5.705576E-1,1.4272548E0,8.2174313E-1,1.9111615E0,1.3366975E0,2.4113557E0,1.6329687E0,2.7883606E0,2.0158203E0,5.8764462E0,-2.810954E-1,-1.914626E-1,-2.6279226E-1,-8.981749E-2,1.1367184E0,-9.1527954E-2,-3.398647E-1,-1.4737162E-1,2.2040176E-1,-1.567106E-1,-1.6128933E-1,-8.62745E-2,-4.507691E-2,6.218193E-2,-2.3502178E-1,-1.4638083E-1,-1.1153442E-1,1.2322502E-2,-1.3433327E-1,-3.1864513E-2,8.793084E-3,1.3397479E-1,-1.5799421E-1,-4.7309972E-2,-5.2719194E-2,2.8101016E-2,-6.0990047E-2,3.1471048E-2,7.4462813E-1,1.3274282E-1,-2.5543174E-1,-8.4056854E-2,-1.3755076E-1,-4.4996217E-2,-5.4918446E-2,2.1299852E-2,5.978531E-3,9.1804594E-2,-1.7090244E-3,1.00664295E-1,3.803091E-1,1.08728945E-1,2.934577E-2,1.5569048E-1,1.009138E-1,1.928959E-1,4.2046323E-2,1.2405466E-1,1.3023566E-1,3.1056532E-1,1.0559986E-1,2.950409E-1,5.266282E-1,2.1486858E-1,1.7685853E-1,-1.2385114E-1,1.9448899E-1,3.4403878E-1,8.975012E-2,2.8729612E-1,3.927774E-1,1.2202024E0],"categories":[],"categories_nodes":[],"categories_segments":[],"categories_sizes":[],"default_left":[0,0,0,0,0,0,0,0,0,0,0,0,0,0,0,0,0,0,0,0,0,0,0,0,0,0,0,0,0,0,0,0,0,0,0,0,0,0,0,0,0,0,0,0,0,0,0,0,0,0,0,0,0,0,0,0,0,0,0,0,0,0,0,0,0,0,0,0,0,0,0,0,0,0,0,0,0,0,0,0,0,0,0,0,0,0,0,0,0,0,0,0,0,0,0,0,0,0,0,0,0,0,0,0,0,0,0,0,0,0,0,0,0,0,0,0,0,0,0,0,0,0,0,0,0],"id":9,"left_children":[1,3,5,7,9,11,13,15,17,19,21,23,25,27,29,31,33,35,37,39,41,43,45,47,49,51,53,55,57,59,61,-1,63,65,67,69,71,73,75,77,79,81,83,85,87,89,91,93,95,97,99,101,103,105,107,109,111,113,115,117,119,121,123,-1,-1,-1,-1,-1,-1,-1,-1,-1,-1,-1,-1,-1,-1,-1,-1,-1,-1,-1,-1,-1,-1,-1,-1,-1,-1,-1,-1,-1,-1,-1,-1,-1,-1,-1,-1,-1,-1,-1,-1,-1,-1,-1,-1,-1,-1,-1,-1,-1,-1,-1,-1,-1,-1,-1,-1,-1,-1,-1,-1,-1,-1],"loss_changes":[3.2835288E3,8.4163416E2,9.4943823E2,2.3123218E2,2.1981366E2,3.658291E2,2.1821582E2,7.654944E1,1.0288037E2,8.576199E1,1.6373805E2,1.3640736E2,1.7421289E2,1.2948535E2,1.03104004E2,3.7577515E1,5.5401123E1,7.3637695E1,8.919165E1,3.7142975E1,2.4652483E1,9.523487E1,1.3952927E2,2.7007996E1,1.1321454E2,7.8570404E1,8.848865E1,8.773486E1,4.974652E1,5.7274597E1,1.371134E2,0E0,4.7174072E1,2.0039719E1,2.8223654E2,2.8769623E1,6.660385E1,6.471118E1,2.526322E1,1.6645874E1,2.4207092E1,1.1053556E1,1.1230797E1,4.0772232E1,5.887524E1,6.330224E1,1.053929E2,1.629641E1,2.0905289E1,4.6822525E1,6.096055E1,7.5506645E1,4.3755814E1,5.092665E1,7.1473206E1,7.00625E1,6.2131653E1,3.221579E1,7.492334E1,4.8920868E1,3.4556213E1,1.8509766E1,1.862763E2,0E0,0E0,0E0,0E0,0E0,0E0,0E0,0E0,0E0,0E0,0E0,0E0,0E0,0E0,0E0,0E0,0E0,0E0,0E0,0E0,0E0,0E0,0E0,0E0,0E0,0E0,0E0,0E0,0E0,0E0,0E0,0E0,0E0,0E0,0E0,0E0,0E0,0E0,0E0,0E0,0E0,0E0,0E0,0E0,0E0,0E0,0E0,0E0,0E0,0E0,0E0,0E0,0E0,0E0,0E0,0E0,0E0,0E0,0E0,0E0,0E0,0E0],"parents":[2147483647,0,0,1,1,2,2,3,3,4,4,5,5,6,6,7,7,8,8,9,9,10,10,11,11,12,12,13,13,14,14,15,15,16,16,17,17,18,18,19,19,20,20,21,21,22,22,23,23,24,24,25,25,26,26,27,27,28,28,29,29,30,30,32,32,33,33,34,34,35,35,36,36,37,37,38,38,39,39,40,40,41,41,42,42,43,43,44,44,45,45,46,46,47,47,48,48,49,49,50,50,51,51,52,52,53,53,54,54,55,55,56,56,57,57,58,58,59,59,60,60,61,61,62,62],"right_children":[2,4,6,8,10,12,14,16,18,20,22,24,26,28,30,32,34,36,38,40,42,44,46,48,50,52,54,56,58,60,62,-1,64,66,68,70,72,74,76,78,80,82,84,86,88,90,92,94,96,98,100,102,104,106,108,110,112,114,116,118,120,122,124,-1,-1,-1,-1,-1,-1,-1,-1,-1,-1,-1,-1,-1,-1,-1,-1,-1,-1,-1,-1,-1,-1,-1,-1,-1,-1,-1,-1,-1,-1,-1,-1,-1,-1,-1,-1,-1,-1,-1,-1,-1,-1,-1,-1,-1,-1,-1,-1,-1,-1,-1,-1,-1,-1,-1,-1,-1,-1,-1,-1,-1,-1],"split_conditions":[-8.6279556E-2,-1.1372489E-2,4.924726E-1,-1.2134601E0,-1.3001662E0,7.807824E-1,1.3010195E0,1.2460527E0,-4.0019363E-1,1.164266E0,1.0290286E-1,-1.187011E0,-3.472692E-1,8.33086E-1,1.6227571E0,-2.3626494E0,-2.3848761E-3,-8.3785576E-1,1.876928E0,4.2292956E-1,3.4572798E-1,-6.28988E-1,1.5001627E0,-8.3785576E-1,2.0648284E-1,2.069176E0,2.7708095E-1,1.6681111E0,2.7708095E-1,5.545957E-1,8.2502216E-1,-4.6941596E-1,8.2502216E-1,1.0290286E-1,1.3686027E-1,-3.472692E-1,-7.682332E-1,8.2502216E-1,1.6227571E0,-6.986106E-1,1.1811988E0,2.7708095E-1,1.2460527E0,4.2292956E-1,1.0648023E0,-2.5255087E-1,-1.5340815E0,1.0290286E-1,8.2502216E-1,1.3449776E0,4.2292956E-1,1.876928E0,-2.5255087E-1,1.0419537E0,4.2292956E-1,1.0290286E-1,6.940762E-1,1.6681111E0,-1.3758352E0,3.0025513E0,4.2292956E-1,1.164266E0,7.6346344E-1,-2.810954E-1,-1.914626E-1,-2.6279226E-1,-8.981749E-2,1.1367184E0,-9.1527954E-2,-3.398647E-1,-1.4737162E-1,2.2040176E-1,-1.567106E-1,-1.6128933E-1,-8.62745E-2,-4.507691E-2,6.218193E-2,-2.3502178E-1,-1.4638083E-1,-1.1153442E-1,1.2322502E-2,-1.3433327E-1,-3.1864513E-2,8.793084E-3,1.3397479E-1,-1.5799421E-1,-4.7309972E-2,-5.2719194E-2,2.8101016E-2,-6.0990047E-2,3.1471048E-2,7.4462813E-1,1.3274282E-1,-2.5543174E-1,-8.4056854E-2,-1.3755076E-1,-4.4996217E-2,-5.4918446E-2,2.1299852E-2,5.978531E-3,9.1804594E-2,-1.7090244E-3,1.00664295E-1,3.803091E-1,1.08728945E-1,2.934577E-2,1.5569048E-1,1.009138E-1,1.928959E-1,4.2046323E-2,1.2405466E-1,1.3023566E-1,3.1056532E-1,1.0559986E-1,2.950409E-1,5.266282E-1,2.1486858E-1,1.7685853E-1,-1.2385114E-1,1.9448899E-1,3.4403878E-1,8.975012E-2,2.8729612E-1,3.927774E-1,1.2202024E0],"split_indices":[2,0,0,2,2,2,2,6,6,0,4,0,0,1,7,0,1,1,4,6,1,1,0,1,1,6,7,0,7,1,3,0,3,4,1,0,1,3,7,1,1,7,6,6,9,9,1,4,3,8,6,4,9,1,6,4,2,0,5,0,6,0,1,0,0,0,0,0,0,0,0,0,0,0,0,0,0,0,0,0,0,0,0,0,0,0,0,0,0,0,0,0,0,0,0,0,0,0,0,0,0,0,0,0,0,0,0,0,0,0,0,0,0,0,0,0,0,0,0,0,0,0,0,0,0],"split_type":[0,0,0,0,0,0,0,0,0,0,0,0,0,0,0,0,0,0,0,0,0,0,0,0,0,0,0,0,0,0,0,0,0,0,0,0,0,0,0,0,0,0,0,0,0,0,0,0,0,0,0,0,0,0,0,0,0,0,0,0,0,0,0,0,0,0,0,0,0,0,0,0,0,0,0,0,0,0,0,0,0,0,0,0,0,0,0,0,0,0,0,0,0,0,0,0,0,0,0,0,0,0,0,0,0,0,0,0,0,0,0,0,0,0,0,0,0,0,0,0,0,0,0,0,0],"sum_hessian":[5.284E3,2.468E3,2.816E3,1.128E3,1.34E3,1.884E3,9.32E2,3.3E2,7.98E2,3.21E2,1.019E3,8.62E2,1.022E3,7E2,2.32E2,2.69E2,6.1E1,1.92E2,6.06E2,2.31E2,9E1,5.16E2,5.03E2,1.29E2,7.33E2,4.86E2,5.36E2,5.09E2,1.91E2,1.93E2,3.9E1,7E0,2.62E2,3.2E1,2.9E1,4.7E1,1.45E2,4.88E2,1.18E2,1.25E2,1.06E2,4.6E1,4.4E1,1.43E2,3.73E2,4.29E2,7.4E1,2.7E1,1.02E2,4E2,3.33E2,4.5E2,3.6E1,1.87E2,3.49E2,4.19E2,9E1,7.7E1,1.14E2,1.19E2,7.4E1,2.1E1,1.8E1,1.19E2,1.43E2,2E1,1.2E1,1E0,2.8E1,3.4E1,1.3E1,4E0,1.41E2,1.94E2,2.94E2,9E1,2.8E1,3.3E1,9.2E1,8.7E1,1.9E1,1.6E1,3E1,3.6E1,8E0,8.8E1,5.5E1,2.23E2,1.5E2,9.4E1,3.35E2,2E0,7.2E1,1.7E1,1E1,4.2E1,6E1,2.89E2,1.11E2,1.82E2,1.51E2,3.61E2,8.9E1,7E0,2.9E1,1.47E2,4E1,1.92E2,1.57E2,2.15E2,2.04E2,6.1E1,2.9E1,6.7E1,1E1,8E0,1.06E2,1.14E2,5E0,3.4E1,4E1,1E1,1.1E1,1.5E1,3E0],"tree_param":{"num_deleted":"0","num_feature":"11","num_nodes":"125","size_leaf_vector":"1"}},{"base_weights":[4.193149E-3,-5.263481E-1,9.5983994E-1,-8.831362E-1,1.749335E-1,6.2668633E-1,1.8072016E0,-1.5143472E0,-5.117889E-1,-2.0798355E-1,7.535347E-1,2.0204216E-2,8.804234E-1,1.268211E0,2.2492242E0,-1.9273455E0,-1.090708E0,-1.3736147E0,-3.5349295E-1,-5.952405E-1,1.1803018E-1,5.1565945E-1,1.4403887E0,-3.578819E-1,4.6804428E-1,5.7657814E-1,1.1881804E0,7.93488E-1,1.9120122E0,1.5632299E0,2.501908E0,-2.658986E0,-1.6758225E0,-1.7675935E0,-6.787975E-1,-1.9473068E0,-7.030392E-1,-9.897638E-1,-1.4986144E-1,-8.2781416E-1,2.6514322E-1,-9.55058E-3,1.2207037E0,4.847805E-2,8.032666E-1,4.4183517E0,1.2679943E0,-7.4470305E-1,1.6031517E-1,-4.2911123E-2,9.90701E-1,8.897955E-2,8.816433E-1,9.9308014E-2,1.3427447E0,4.2184752E-1,1.4214526E0,6.0367103E0,1.7691512E0,1.1479235E0,2.3513274E0,1.7858598E0,2.9522686E0,-2.7277714E-1,-7.239716E-2,-1.8728411E-1,-7.276497E-2,-3.2896516E-1,-1.5324931E-1,-1.13726914E-1,3.8039002E-3,-2.4742372E-1,-1.3967034E-1,2.641493E-2,-1.0164221E-1,-1.5131116E-1,-5.518159E-2,-3.1252537E-2,6.644441E-2,-1.1545854E-1,-3.3754956E-2,-3.8080637E-3,2.0276497E-1,-3.1574976E-2,4.051605E-2,7.692864E-2,2.4528854E-1,-7.539589E-2,3.844626E-2,5.4853745E-2,1.4351927E-1,1.2951092E0,1.2158508E-2,8.840704E-2,2.568687E-1,-2.4515902E-1,-5.911378E-2,-3.2491352E-2,6.1256427E-2,-3.9163135E-2,3.79795E-2,4.35311E-2,1.524554E-1,-5.2899118E-3,1.608614E-1,4.1240558E-2,1.1213403E-1,-4.2606186E-2,8.518683E-2,1.7239092E-2,1.453458E-1,1.2531825E-3,1.0646999E-1,7.273214E-2,1.8325558E-1,1.4939423E-1,7.561123E-1,1.350024E-1,3.040136E-1,4.5918576E-2,1.7956638E-1,1.5342061E-1,2.902744E-1,1.1517699E-1,2.1539198E-1,5.8921975E-1,2.7071717E-1],"categories":[],"categories_nodes":[],"categories_segments":[],"categories_sizes":[],"default_left":[0,0,0,0,0,0,0,0,0,0,0,0,0,0,0,0,0,0,0,0,0,0,0,0,0,0,0,0,0,0,0,0,0,0,0,0,0,0,0,0,0,0,0,0,0,0,0,0,0,0,0,0,0,0,0,0,0,0,0,0,0,0,0,0,0,0,0,0,0,0,0,0,0,0,0,0,0,0,0,0,0,0,0,0,0,0,0,0,0,0,0,0,0,0,0,0,0,0,0,0,0,0,0,0,0,0,0,0,0,0,0,0,0,0,0,0,0,0,0,0,0,0,0,0,0,0,0],"id":10,"left_children":[1,3,5,7,9,11,13,15,17,19,21,23,25,27,29,31,33,35,37,39,41,43,45,47,49,51,53,55,57,59,61,63,65,67,69,71,73,75,77,79,81,83,85,87,89,91,93,95,97,99,101,103,105,107,109,111,113,115,117,119,121,123,125,-1,-1,-1,-1,-1,-1,-1,-1,-1,-1,-1,-1,-1,-1,-1,-1,-1,-1,-1,-1,-1,-1,-1,-1,-1,-1,-1,-1,-1,-1,-1,-1,-1,-1,-1,-1,-1,-1,-1,-1,-1,-1,-1,-1,-1,-1,-1,-1,-1,-1,-1,-1,-1,-1,-1,-1,-1,-1,-1,-1,-1,-1,-1,-1],"loss_changes":[2.6800532E3,8.506147E2,5.3157043E2,5.273248E2,2.5428174E2,2.0865295E2,1.2389441E2,1.4381628E2,1.932359E2,8.730976E1,7.392444E1,6.8065674E1,8.8711E1,7.244464E1,4.653076E1,7.301831E1,1.1423004E2,8.326581E1,1.55459E2,6.3451897E1,5.290731E1,4.577942E1,5.446347E1,4.3817398E1,4.9180508E1,7.17675E1,7.9641235E1,3.2306526E1,4.942453E1,2.3812317E1,6.2770874E1,1.2133789E1,5.7668457E1,5.0781128E1,8.51634E1,3.0779541E1,3.148782E1,6.5862E1,1.2087701E2,3.9501144E1,3.6418728E1,4.3048584E1,1.9805927E1,3.560831E1,3.317743E1,2.1840448E2,5.365822E1,3.1315598E1,2.0826788E1,1.4004919E1,2.6317543E1,4.040299E1,3.294258E1,2.4085299E1,5.3522583E1,2.366832E1,1.35058365E1,9.479286E0,4.916617E1,2.3712234E1,7.712082E0,1.7123352E1,7.628137E1,0E0,0E0,0E0,0E0,0E0,0E0,0E0,0E0,0E0,0E0,0E0,0E0,0E0,0E0,0E0,0E0,0E0,0E0,0E0,0E0,0E0,0E0,0E0,0E0,0E0,0E0,0E0,0E0,0E0,0E0,0E0,0E0,0E0,0E0,0E0,0E0,0E0,0E0,0E0,0E0,0E0,0E0,0E0,0E0,0E0,0E0,0E0,0E0,0E0,0E0,0E0,0E0,0E0,0E0,0E0,0E0,0E0,0E0,0E0,0E0,0E0,0E0,0E0,0E0],"parents":[2147483647,0,0,1,1,2,2,3,3,4,4,5,5,6,6,7,7,8,8,9,9,10,10,11,11,12,12,13,13,14,14,15,15,16,16,17,17,18,18,19,19,20,20,21,21,22,22,23,23,24,24,25,25,26,26,27,27,28,28,29,29,30,30,31,31,32,32,33,33,34,34,35,35,36,36,37,37,38,38,39,39,40,40,41,41,42,42,43,43,44,44,45,45,46,46,47,47,48,48,49,49,50,50,51,51,52,52,53,53,54,54,55,55,56,56,57,57,58,58,59,59,60,60,61,61,62,62],"right_children":[2,4,6,8,10,12,14,16,18,20,22,24,26,28,30,32,34,36,38,40,42,44,46,48,50,52,54,56,58,60,62,64,66,68,70,72,74,76,78,80,82,84,86,88,90,92,94,96,98,100,102,104,106,108,110,112,114,116,118,120,122,124,126,-1,-1,-1,-1,-1,-1,-1,-1,-1,-1,-1,-1,-1,-1,-1,-1,-1,-1,-1,-1,-1,-1,-1,-1,-1,-1,-1,-1,-1,-1,-1,-1,-1,-1,-1,-1,-1,-1,-1,-1,-1,-1,-1,-1,-1,-1,-1,-1,-1,-1,-1,-1,-1,-1,-1,-1,-1,-1,-1,-1,-1,-1,-1,-1],"split_conditions":[5.206638E-1,4.924726E-1,6.6042095E-1,-8.666353E-1,-3.4639814E-1,-6.831659E-1,2.7708095E-1,6.72377E-2,-1.187011E0,-7.200745E-2,8.33086E-1,-7.200745E-2,1.0290286E-1,4.2292956E-1,-6.28988E-1,-1.4735787E0,8.2502216E-1,1.0290286E-1,-2.5255087E-1,1.876928E0,2.0040078E0,2.7708095E-1,-1.3758352E0,1.3010195E0,4.2292956E-1,2.7708095E-1,-1.2555912E0,1.0648023E0,-1.5340815E0,1.3449776E0,8.2502216E-1,2.069176E0,1.876928E0,-1.5229077E0,1.0648023E0,-1.7298575E-1,-2.5255087E-1,-1.7298575E-1,1.1811988E0,4.2292956E-1,1.3457046E0,-9.533415E-1,-6.932229E-1,8.283693E-1,1.3322144E0,6.6042095E-1,1.5001627E0,2.8424218E-1,1.0290286E-1,1.3010195E0,-1.187011E0,2.069176E0,-6.28988E-1,1.3010195E0,2.8424218E-1,2.761054E-1,8.2502216E-1,8.283693E-1,1.1115763E0,1.0648023E0,1.164266E0,1.040901E0,-1.3758352E0,-2.7277714E-1,-7.239716E-2,-1.8728411E-1,-7.276497E-2,-3.2896516E-1,-1.5324931E-1,-1.13726914E-1,3.8039002E-3,-2.4742372E-1,-1.3967034E-1,2.641493E-2,-1.0164221E-1,-1.5131116E-1,-5.518159E-2,-3.1252537E-2,6.644441E-2,-1.1545854E-1,-3.3754956E-2,-3.8080637E-3,2.0276497E-1,-3.1574976E-2,4.051605E-2,7.692864E-2,2.4528854E-1,-7.539589E-2,3.844626E-2,5.4853745E-2,1.4351927E-1,1.2951092E0,1.2158508E-2,8.840704E-2,2.568687E-1,-2.4515902E-1,-5.911378E-2,-3.2491352E-2,6.1256427E-2,-3.9163135E-2,3.79795E-2,4.35311E-2,1.524554E-1,-5.2899118E-3,1.608614E-1,4.1240558E-2,1.1213403E-1,-4.2606186E-2,8.518683E-2,1.7239092E-2,1.453458E-1,1.2531825E-3,1.0646999E-1,7.273214E-2,1.8325558E-1,1.4939423E-1,7.561123E-1,1.350024E-1,3.040136E-1,4.5918576E-2,1.7956638E-1,1.5342061E-1,2.902744E-1,1.1517699E-1,2.1539198E-1,5.8921975E-1,2.7071717E-1],"split_indices":[2,0,0,2,2,0,7,1,0,1,1,1,4,6,1,2,3,4,9,4,0,7,5,2,6,7,1,9,1,8,3,6,4,0,9,2,9,2,1,6,5,2,2,0,0,0,0,10,4,2,0,6,1,2,10,1,3,0,1,9,0,2,5,0,0,0,0,0,0,0,0,0,0,0,0,0,0,0,0,0,0,0,0,0,0,0,0,0,0,0,0,0,0,0,0,0,0,0,0,0,0,0,0,0,0,0,0,0,0,0,0,0,0,0,0,0,0,0,0,0,0,0,0,0,0,0,0],"split_type":[0,0,0,0,0,0,0,0,0,0,0,0,0,0,0,0,0,0,0,0,0,0,0,0,0,0,0,0,0,0,0,0,0,0,0,0,0,0,0,0,0,0,0,0,0,0,0,0,0,0,0,0,0,0,0,0,0,0,0,0,0,0,0,0,0,0,0,0,0,0,0,0,0,0,0,0,0,0,0,0,0,0,0,0,0,0,0,0,0,0,0,0,0,0,0,0,0,0,0,0,0,0,0,0,0,0,0,0,0,0,0,0,0,0,0,0,0,0,0,0,0,0,0,0,0,0,0],"sum_hessian":[5.284E3,3.398E3,1.886E3,2.252E3,1.146E3,1.355E3,5.31E2,8.33E2,1.419E3,6.9E2,4.56E2,4E2,9.55E2,2.41E2,2.9E2,4.2E2,4.13E2,2.19E2,1.2E3,3.15E2,3.75E2,3.4E2,1.16E2,2.17E2,1.83E2,4.82E2,4.73E2,1.4E2,1.01E2,8E1,2.1E2,1.05E2,3.15E2,1.55E2,2.58E2,1.17E2,1.02E2,2.9E2,9.1E2,2.48E2,6.7E1,3.37E2,3.8E1,1.3E2,2.1E2,5E0,1.11E2,1.24E2,9.3E1,9.3E1,9E1,1.86E2,2.96E2,5.9E1,4.14E2,8.9E1,5.1E1,2E0,9.9E1,5.4E1,2.6E1,8.3E1,1.27E2,1.01E2,4E0,2.6E2,5.5E1,1.9E1,1.36E2,1.57E2,1.01E2,5.8E1,5.9E1,2.5E1,7.7E1,1.31E2,1.59E2,7.59E2,1.51E2,1.48E2,1E2,5.8E1,9E0,1.94E2,1.43E2,2.9E1,9E0,3.8E1,9.2E1,1.51E2,5.9E1,1E0,4E0,8.7E1,2.4E1,9E0,1.15E2,4.5E1,4.8E1,5.1E1,4.2E1,4.5E1,4.5E1,1.71E2,1.5E1,1.01E2,1.95E2,3.5E1,2.4E1,3.6E1,3.78E2,5.5E1,3.4E1,2E1,3.1E1,1E0,1E0,7.6E1,2.3E1,2.7E1,2.7E1,1.2E1,1.4E1,3.2E1,5.1E1,8E0,1.19E2],"tree_param":{"num_deleted":"0","num_feature":"11","num_nodes":"127","size_leaf_vector":"1"}},{"base_weights":[4.5989947E-3,-6.832878E-1,6.075056E-1,-1.389538E0,-3.2802868E-1,2.727833E-1,1.2831155E0,-1.992293E0,-1.1304519E0,-5.878844E-1,1.6659656E-1,-1.1755842E-1,6.018079E-1,8.640454E-1,1.7048393E0,-2.2131712E0,-1.0545983E0,-1.7823118E0,-9.150491E-1,-8.9943033E-1,-1.4439456E-1,-1.500209E-1,6.04904E-1,-4.333265E-1,2.5245535E-1,2.4152961E-1,9.2741996E-1,2.4999657E0,7.8196454E-1,1.4427096E0,2.5062978E0,-2.3304377E0,5.2139026E-1,1.1254889E0,-1.7152942E0,-2.927147E0,-1.3983527E0,-1.0760374E0,-1.922233E-1,-1.5229656E0,-6.992218E-1,-3.7288567E-1,6.2012327E-1,-6.313044E-1,1.8224078E-1,3.6835828E-1,1.6112365E0,-9.616828E-1,-1.4322016E-1,-1.5728917E-2,8.966905E-1,1.3848042E-1,1.4910878E0,5.090844E-1,1.2139181E0,8.2235565E0,7.711923E-1,4.5827818E-1,1.0881778E0,1.1520929E0,1.9949678E0,1.9755777E0,3.2643728E0,-2.7278003E-1,-1.7197996E-1,1.0438942E0,-2.0231715E-1,8.519775E-1,-3.2124396E-2,-1.9786988E-1,4.189148E-2,-3.3419877E-1,-2.2256497E-1,2.0839036E-1,-1.5508568E-1,-1.5113315E-1,-7.691306E-2,-6.384655E-2,7.23908E-2,-1.7578723E-1,-7.106889E-2,-1.0420584E-1,-3.591512E-2,-7.983077E-2,2.3722942E-3,1.9850324E-1,-8.120927E-3,-5.3735662E-2,-3.5737535E-1,-1.0317046E-2,9.745944E-2,-4.5893736E-2,5.999725E-2,1.078127E-1,5.6604856E-1,-2.1248268E-1,-8.2252085E-2,-3.0398125E-2,5.6840856E-2,-5.529192E-2,3.259281E-2,6.258609E-2,2.844518E-1,-1.7803947E-2,5.401943E-2,8.3289824E-2,3.1849098E-1,-1.3406016E-2,8.4945284E-2,8.5444756E-2,1.5911826E-1,-5.5438995E-2,1.4260318E0,-1.7102813E-2,1.732416E-1,5.2445824E-3,7.6062575E-2,6.756193E-2,1.5168053E-1,6.776098E-2,1.7044973E-1,1.712771E-1,3.4049207E-1,3.3069813E-1,1.6660534E-1,2.6037502E-1,5.994285E-1],"categories":[],"categories_nodes":[],"categories_segments":[],"categories_sizes":[],"default_left":[0,0,0,0,0,0,0,0,0,0,0,0,0,0,0,0,0,0,0,0,0,0,0,0,0,0,0,0,0,0,0,0,0,0,0,0,0,0,0,0,0,0,0,0,0,0,0,0,0,0,0,0,0,0,0,0,0,0,0,0,0,0,0,0,0,0,0,0,0,0,0,0,0,0,0,0,0,0,0,0,0,0,0,0,0,0,0,0,0,0,0,0,0,0,0,0,0,0,0,0,0,0,0,0,0,0,0,0,0,0,0,0,0,0,0,0,0,0,0,0,0,0,0,0,0,0,0],"id":11,"left_children":[1,3,5,7,9,11,13,15,17,19,21,23,25,27,29,31,33,35,37,39,41,43,45,47,49,51,53,55,57,59,61,63,65,67,69,71,73,75,77,79,81,83,85,87,89,91,93,95,97,99,101,103,105,107,109,111,113,115,117,119,121,123,125,-1,-1,-1,-1,-1,-1,-1,-1,-1,-1,-1,-1,-1,-1,-1,-1,-1,-1,-1,-1,-1,-1,-1,-1,-1,-1,-1,-1,-1,-1,-1,-1,-1,-1,-1,-1,-1,-1,-1,-1,-1,-1,-1,-1,-1,-1,-1,-1,-1,-1,-1,-1,-1,-1,-1,-1,-1,-1,-1,-1,-1,-1,-1,-1],"loss_changes":[2.192271E3,6.190209E2,6.3669116E2,1.267406E2,2.1140324E2,2.421651E2,1.6341785E2,4.882367E1,7.980835E1,1.4881467E2,7.877661E1,1.0094106E2,1.19785126E2,6.115567E1,9.386401E1,6.502887E1,7.250891E1,5.876529E1,5.076169E1,7.795691E1,7.814098E1,5.288603E1,5.606086E1,7.129052E1,6.8778046E1,6.250254E1,6.3742706E1,2.1134346E2,4.4004852E1,5.4195984E1,3.9013794E1,4.165381E1,2.4824219E2,1.3110762E2,2.2190987E1,2.747223E0,6.1117188E1,4.666452E1,3.3576324E1,2.7944519E1,5.5704895E1,5.8060696E1,9.8758484E1,3.5398537E1,4.4425285E1,3.744835E1,9.103846E1,2.4960083E1,3.472225E1,5.193703E1,5.994065E1,5.744101E1,3.8596962E1,4.8273216E1,4.1766144E1,2.728576E2,1.6598614E1,2.6954643E1,3.9647034E1,5.9915833E1,4.1914276E1,2.2925446E1,6.554724E1,0E0,0E0,0E0,0E0,0E0,0E0,0E0,0E0,0E0,0E0,0E0,0E0,0E0,0E0,0E0,0E0,0E0,0E0,0E0,0E0,0E0,0E0,0E0,0E0,0E0,0E0,0E0,0E0,0E0,0E0,0E0,0E0,0E0,0E0,0E0,0E0,0E0,0E0,0E0,0E0,0E0,0E0,0E0,0E0,0E0,0E0,0E0,0E0,0E0,0E0,0E0,0E0,0E0,0E0,0E0,0E0,0E0,0E0,0E0,0E0,0E0,0E0,0E0,0E0],"parents":[2147483647,0,0,1,1,2,2,3,3,4,4,5,5,6,6,7,7,8,8,9,9,10,10,11,11,12,12,13,13,14,14,15,15,16,16,17,17,18,18,19,19,20,20,21,21,22,22,23,23,24,24,25,25,26,26,27,27,28,28,29,29,30,30,31,31,32,32,33,33,34,34,35,35,36,36,37,37,38,38,39,39,40,40,41,41,42,42,43,43,44,44,45,45,46,46,47,47,48,48,49,49,50,50,51,51,52,52,53,53,54,54,55,55,56,56,57,57,58,58,59,59,60,60,61,61,62,62],"right_children":[2,4,6,8,10,12,14,16,18,20,22,24,26,28,30,32,34,36,38,40,42,44,46,48,50,52,54,56,58,60,62,64,66,68,70,72,74,76,78,80,82,84,86,88,90,92,94,96,98,100,102,104,106,108,110,112,114,116,118,120,122,124,126,-1,-1,-1,-1,-1,-1,-1,-1,-1,-1,-1,-1,-1,-1,-1,-1,-1,-1,-1,-1,-1,-1,-1,-1,-1,-1,-1,-1,-1,-1,-1,-1,-1,-1,-1,-1,-1,-1,-1,-1,-1,-1,-1,-1,-1,-1,-1,-1,-1,-1,-1,-1,-1,-1,-1,-1,-1,-1,-1,-1,-1,-1,-1,-1],"split_conditions":[-8.6279556E-2,-3.472692E-1,4.924726E-1,-1.2134601E0,8.283693E-1,7.807824E-1,8.6748856E-1,1.6227571E0,-4.0019363E-1,1.0648023E0,4.2292956E-1,4.2292956E-1,-3.472692E-1,-1.3758352E0,1.0419537E0,2.0260894E0,-1.3549594E0,-8.3785576E-1,1.876928E0,-1.3001662E0,9.027086E-1,2.7708095E-1,-3.4639814E-1,-6.831659E-1,1.3449776E0,2.069176E0,8.2502216E-1,-2.5255087E-1,9.963177E-1,1.3449776E0,1.3877257E0,4.2292956E-1,-2.0267527E0,2.8424218E-1,2.069176E0,1.0290286E-1,-7.682332E-1,8.2502216E-1,1.3449776E0,1.876928E0,1.0290286E-1,-8.666353E-1,-1.5065298E-2,3.0025513E0,1.0419537E0,-2.5255087E-1,1.1811988E0,2.8424218E-1,1.6227571E0,2.7708095E-1,1.5293118E0,1.3877257E0,6.9384086E-1,1.1276071E0,1.0290286E-1,8.2502216E-1,3.4725142E-1,2.7708095E-1,6.72377E-2,4.2292956E-1,1.6478443E0,1.1811988E0,1.6227571E0,-2.7278003E-1,-1.7197996E-1,1.0438942E0,-2.0231715E-1,8.519775E-1,-3.2124396E-2,-1.9786988E-1,4.189148E-2,-3.3419877E-1,-2.2256497E-1,2.0839036E-1,-1.5508568E-1,-1.5113315E-1,-7.691306E-2,-6.384655E-2,7.23908E-2,-1.7578723E-1,-7.106889E-2,-1.0420584E-1,-3.591512E-2,-7.983077E-2,2.3722942E-3,1.9850324E-1,-8.120927E-3,-5.3735662E-2,-3.5737535E-1,-1.0317046E-2,9.745944E-2,-4.5893736E-2,5.999725E-2,1.078127E-1,5.6604856E-1,-2.1248268E-1,-8.2252085E-2,-3.0398125E-2,5.6840856E-2,-5.529192E-2,3.259281E-2,6.258609E-2,2.844518E-1,-1.7803947E-2,5.401943E-2,8.3289824E-2,3.1849098E-1,-1.3406016E-2,8.4945284E-2,8.5444756E-2,1.5911826E-1,-5.5438995E-2,1.4260318E0,-1.7102813E-2,1.732416E-1,5.2445824E-3,7.6062575E-2,6.756193E-2,1.5168053E-1,6.776098E-2,1.7044973E-1,1.712771E-1,3.4049207E-1,3.3069813E-1,1.6660534E-1,2.6037502E-1,5.994285E-1],"split_indices":[2,0,0,2,0,2,2,7,6,9,6,6,0,5,1,5,0,1,4,2,1,7,2,0,8,6,3,9,0,8,2,6,0,10,6,4,1,3,8,4,4,2,5,0,1,9,1,10,7,7,1,2,1,2,4,3,2,7,1,6,2,1,7,0,0,0,0,0,0,0,0,0,0,0,0,0,0,0,0,0,0,0,0,0,0,0,0,0,0,0,0,0,0,0,0,0,0,0,0,0,0,0,0,0,0,0,0,0,0,0,0,0,0,0,0,0,0,0,0,0,0,0,0,0,0,0,0],"split_type":[0,0,0,0,0,0,0,0,0,0,0,0,0,0,0,0,0,0,0,0,0,0,0,0,0,0,0,0,0,0,0,0,0,0,0,0,0,0,0,0,0,0,0,0,0,0,0,0,0,0,0,0,0,0,0,0,0,0,0,0,0,0,0,0,0,0,0,0,0,0,0,0,0,0,0,0,0,0,0,0,0,0,0,0,0,0,0,0,0,0,0,0,0,0,0,0,0,0,0,0,0,0,0,0,0,0,0,0,0,0,0,0,0,0,0,0,0,0,0,0,0,0,0,0,0,0,0],"sum_hessian":[5.284E3,2.468E3,2.816E3,8.25E2,1.643E3,1.884E3,9.32E2,2.46E2,5.79E2,1.077E3,5.66E2,8.62E2,1.022E3,4.69E2,4.63E2,1.98E2,4.8E1,1.42E2,4.37E2,6.32E2,4.45E2,3.29E2,2.37E2,4.65E2,3.97E2,4.86E2,5.36E2,2.1E1,4.48E2,3.51E2,1.12E2,1.9E2,8E0,1.1E1,3.7E1,3.4E1,1.08E2,3.57E2,8E1,1.52E2,4.8E2,3.43E2,1.02E2,1.34E2,1.95E2,1.93E2,4.4E1,1.64E2,3.01E2,2.81E2,1.16E2,4.5E2,3.6E1,2.19E2,3.17E2,4E0,1.7E1,2.19E2,2.29E2,2.32E2,1.19E2,6.8E1,4.4E1,1.13E2,7.7E1,1E0,7E0,1E0,1E1,3.3E1,4E0,1.9E1,1.5E1,4E0,1.04E2,1.46E2,2.11E2,5.4E1,2.6E1,1.17E2,3.5E1,2.38E2,2.42E2,1.65E2,1.78E2,3.4E1,6.8E1,1.31E2,3E0,1.44E2,5.1E1,4.2E1,1.51E2,4E1,4E0,1.6E1,1.48E2,2.46E2,5.5E1,1.09E2,1.72E2,1.03E2,1.3E1,2.52E2,1.98E2,2.7E1,9E0,7.6E1,1.43E2,1.64E2,1.53E2,2E0,2E0,9E0,8E0,9.4E1,1.25E2,1.18E2,1.11E2,1.26E2,1.06E2,1.01E2,1.8E1,1.1E1,5.7E1,3.7E1,7E0],"tree_param":{"num_deleted":"0","num_feature":"11","num_nodes":"127","size_leaf_vector":"1"}},{"base_weights":[5.1175524E-3,-4.48745E-1,7.508112E-1,-1.032482E0,-1.4642835E-1,4.7762725E-1,1.4559252E0,-1.4174474E0,-4.962481E-1,-5.036764E-1,2.1327081E-1,-3.771303E-2,6.985976E-1,1.0030239E0,1.8229455E0,-3.546613E0,-1.344457E0,-7.35575E-1,9.6919395E-2,-6.9773537E-1,2.7058536E-2,-3.4658122E-1,4.5366585E-1,-3.967264E-1,3.4712374E-1,4.0979326E-2,8.223364E-1,5.842792E-1,1.565021E0,1.7430302E0,3.8149378E0,-3.6202493E-1,-1.03694536E-1,-1.9641924E0,-1.1230879E0,-1.4685247E0,-5.257512E-1,-6.798683E-1,5.2834755E-1,-1.4449593E0,-5.2056366E-1,-1.7014228E-1,7.9240406E-1,-5.926902E-1,5.751085E-1,2.1229585E-1,8.974967E-1,-8.1886023E-1,8.490364E-2,-1.5541409E0,4.499577E-1,-1.4287776E-1,1.422589E0,5.0806135E-1,1.1729634E0,2.4962121E-1,1.1667994E0,5.6209664E0,1.4342319E0,1.4704236E0,2.3636115E0,5.5511637E0,-6.11248E-1,-2.669668E-1,-1.4669089E-1,-1.626064E-1,-7.825805E-2,-1.731209E-1,-4.8592422E-2,-1.0421314E-1,-1.5684726E-2,-1.08887546E-1,5.3652663E-2,1.471806E-1,-1.5311989E-2,-1.6616683E-1,-8.752722E-2,-1.1662515E-1,-3.3430945E-2,-8.678134E-2,7.141179E-3,3.4638148E-2,6.950125E-1,-1.11695185E-1,-2.1726852E-2,-2.1531655E-2,1.349102E-1,1.6600525E-1,1.6003445E-2,5.329392E-2,1.4017622E-1,-1.0330435E-1,-4.7730663E-4,-2.5739262E-2,4.5909356E-2,-1.7799522E-1,-3.5866037E-2,1.8604605E-2,1.12526536E-1,-4.572452E-2,5.2996762E-2,4.9790192E-2,1.7172699E-1,1.4660427E-2,8.625033E-2,4.343749E-2,1.3643737E-1,-1.1784467E-2,8.44923E-2,-1.1788613E-2,1.33331E-1,1.3340226E-1,7.097427E-1,1.0901145E-1,2.5502065E-1,1.351354E-1,2.9203025E-1,1.6672474E-1,3.6775526E-1,8.3739245E-1,3.9516374E-1,3.5210228E-1,-3.162346E-1],"categories":[],"categories_nodes":[],"categories_segments":[],"categories_sizes":[],"default_left":[0,0,0,0,0,0,0,0,0,0,0,0,0,0,0,0,0,0,0,0,0,0,0,0,0,0,0,0,0,0,0,0,0,0,0,0,0,0,0,0,0,0,0,0,0,0,0,0,0,0,0,0,0,0,0,0,0,0,0,0,0,0,0,0,0,0,0,0,0,0,0,0,0,0,0,0,0,0,0,0,0,0,0,0,0,0,0,0,0,0,0,0,0,0,0,0,0,0,0,0,0,0,0,0,0,0,0,0,0,0,0,0,0,0,0,0,0,0,0,0,0,0,0],"id":12,"left_children":[1,3,5,7,9,11,13,15,17,19,21,23,25,27,29,31,33,35,37,39,41,43,45,47,49,51,53,55,57,59,61,-1,-1,63,65,67,69,71,73,75,77,79,81,83,85,87,89,91,93,95,97,99,101,103,105,107,109,111,113,115,117,119,121,-1,-1,-1,-1,-1,-1,-1,-1,-1,-1,-1,-1,-1,-1,-1,-1,-1,-1,-1,-1,-1,-1,-1,-1,-1,-1,-1,-1,-1,-1,-1,-1,-1,-1,-1,-1,-1,-1,-1,-1,-1,-1,-1,-1,-1,-1,-1,-1,-1,-1,-1,-1,-1,-1,-1,-1,-1,-1,-1,-1],"loss_changes":[1.7890051E3,5.7974054E2,3.845564E2,2.307063E2,2.7844238E2,1.6434787E2,9.092468E1,9.6558105E1,6.6792946E1,1.11973236E2,1.4550974E2,6.0099827E1,8.215289E1,5.8389572E1,4.2221924E1,1.2686157E-1,8.449829E1,5.074768E1,4.5936623E1,1.0462784E2,4.4205437E1,7.406261E1,8.0797806E1,4.58148E1,4.1757347E1,4.110027E1,9.306842E1,2.817072E1,4.8698914E1,4.676935E1,8.7926575E1,0E0,0E0,5.396936E1,7.888049E1,1.825917E1,4.9746162E1,2.4962408E1,5.680374E1,1.7310944E1,7.717917E1,3.932836E1,1.6238155E2,5.033985E1,4.2503563E1,3.688427E1,4.8152725E1,2.0918732E1,1.3695052E1,2.3310852E0,3.543496E1,3.048978E1,4.322235E0,5.752555E1,5.6098145E1,2.0662363E1,1.1494614E1,9.520386E0,3.7542755E1,3.2134705E1,7.530194E1,3.0299225E0,5.3302002E1,0E0,0E0,0E0,0E0,0E0,0E0,0E0,0E0,0E0,0E0,0E0,0E0,0E0,0E0,0E0,0E0,0E0,0E0,0E0,0E0,0E0,0E0,0E0,0E0,0E0,0E0,0E0,0E0,0E0,0E0,0E0,0E0,0E0,0E0,0E0,0E0,0E0,0E0,0E0,0E0,0E0,0E0,0E0,0E0,0E0,0E0,0E0,0E0,0E0,0E0,0E0,0E0,0E0,0E0,0E0,0E0,0E0,0E0,0E0,0E0],"parents":[2147483647,0,0,1,1,2,2,3,3,4,4,5,5,6,6,7,7,8,8,9,9,10,10,11,11,12,12,13,13,14,14,15,15,16,16,17,17,18,18,19,19,20,20,21,21,22,22,23,23,24,24,25,25,26,26,27,27,28,28,29,29,30,30,33,33,34,34,35,35,36,36,37,37,38,38,39,39,40,40,41,41,42,42,43,43,44,44,45,45,46,46,47,47,48,48,49,49,50,50,51,51,52,52,53,53,54,54,55,55,56,56,57,57,58,58,59,59,60,60,61,61,62,62],"right_children":[2,4,6,8,10,12,14,16,18,20,22,24,26,28,30,32,34,36,38,40,42,44,46,48,50,52,54,56,58,60,62,-1,-1,64,66,68,70,72,74,76,78,80,82,84,86,88,90,92,94,96,98,100,102,104,106,108,110,112,114,116,118,120,122,-1,-1,-1,-1,-1,-1,-1,-1,-1,-1,-1,-1,-1,-1,-1,-1,-1,-1,-1,-1,-1,-1,-1,-1,-1,-1,-1,-1,-1,-1,-1,-1,-1,-1,-1,-1,-1,-1,-1,-1,-1,-1,-1,-1,-1,-1,-1,-1,-1,-1,-1,-1,-1,-1,-1,-1,-1,-1,-1,-1],"split_conditions":[4.339576E-1,-3.472692E-1,6.6042095E-1,-4.3310434E-1,-6.065167E-1,-6.831659E-1,2.7708095E-1,-2.1947012E0,1.3449776E0,9.963177E-1,-6.28988E-1,4.2292956E-1,-1.1859686E0,4.2292956E-1,2.5078528E0,2.0260894E0,-4.0019363E-1,-2.5255087E-1,-7.200745E-2,-2.5255087E-1,1.876928E0,1.2460527E0,8.283693E-1,1.2143134E0,-2.3626494E0,1.6478443E0,4.2292956E-1,1.0648023E0,-1.5340815E0,1.3877257E0,6.653196E-1,-3.6202493E-1,-1.03694536E-1,-2.8087518E-1,8.2502216E-1,1.2460527E0,8.2502216E-1,1.7383903E-1,8.2502216E-1,1.3449776E0,-4.0019363E-1,-4.0019363E-1,1.3900666E0,2.7708095E-1,1.0290286E-1,-1.3758352E0,4.2292956E-1,1.6227571E0,1.0648023E0,1.876928E0,5.545957E-1,1.3449776E0,2.7708095E-1,1.0290286E-1,-2.5255087E-1,2.761054E-1,-1.2555912E0,8.283693E-1,1.1115763E0,2.069176E0,1.6227571E0,-1.3758352E0,1.3877257E0,-2.669668E-1,-1.4669089E-1,-1.626064E-1,-7.825805E-2,-1.731209E-1,-4.8592422E-2,-1.0421314E-1,-1.5684726E-2,-1.08887546E-1,5.3652663E-2,1.471806E-1,-1.5311989E-2,-1.6616683E-1,-8.752722E-2,-1.1662515E-1,-3.3430945E-2,-8.678134E-2,7.141179E-3,3.4638148E-2,6.950125E-1,-1.11695185E-1,-2.1726852E-2,-2.1531655E-2,1.349102E-1,1.6600525E-1,1.6003445E-2,5.329392E-2,1.4017622E-1,-1.0330435E-1,-4.7730663E-4,-2.5739262E-2,4.5909356E-2,-1.7799522E-1,-3.5866037E-2,1.8604605E-2,1.12526536E-1,-4.572452E-2,5.2996762E-2,4.9790192E-2,1.7172699E-1,1.4660427E-2,8.625033E-2,4.343749E-2,1.3643737E-1,-1.1784467E-2,8.44923E-2,-1.1788613E-2,1.33331E-1,1.3340226E-1,7.097427E-1,1.0901145E-1,2.5502065E-1,1.351354E-1,2.9203025E-1,1.6672474E-1,3.6775526E-1,8.3739245E-1,3.9516374E-1,3.5210228E-1,-3.162346E-1],"split_indices":[2,0,0,2,2,0,7,0,8,0,1,6,1,6,0,5,6,9,1,9,4,6,0,2,0,2,6,9,1,2,5,0,0,1,3,6,3,2,3,8,6,6,1,7,4,5,6,7,9,4,1,8,7,4,9,1,1,0,1,6,7,5,2,0,0,0,0,0,0,0,0,0,0,0,0,0,0,0,0,0,0,0,0,0,0,0,0,0,0,0,0,0,0,0,0,0,0,0,0,0,0,0,0,0,0,0,0,0,0,0,0,0,0,0,0,0,0,0,0,0,0,0,0],"split_type":[0,0,0,0,0,0,0,0,0,0,0,0,0,0,0,0,0,0,0,0,0,0,0,0,0,0,0,0,0,0,0,0,0,0,0,0,0,0,0,0,0,0,0,0,0,0,0,0,0,0,0,0,0,0,0,0,0,0,0,0,0,0,0,0,0,0,0,0,0,0,0,0,0,0,0,0,0,0,0,0,0,0,0,0,0,0,0,0,0,0,0,0,0,0,0,0,0,0,0,0,0,0,0,0,0,0,0,0,0,0,0,0,0,0,0,0,0,0,0,0,0,0,0],"sum_hessian":[5.284E3,3.285E3,1.999E3,1.12E3,2.165E3,1.442E3,5.57E2,6.51E2,4.69E2,1.086E3,1.079E3,4.33E2,1.009E3,2.51E2,3.06E2,2E1,6.31E2,3.34E2,1.35E2,7.95E2,2.91E2,3.24E2,7.55E2,2.24E2,2.09E2,1.6E2,8.49E2,1.45E2,1.06E2,2.96E2,1E1,1.9E1,1E0,1.64E2,4.67E2,7.3E1,2.61E2,4.8E1,8.7E1,1.51E2,6.44E2,2.32E2,5.9E1,2.56E2,6.8E1,4.9E2,2.65E2,1.19E2,1.05E2,1E1,1.99E2,1.42E2,1.8E1,4.49E2,4E2,9.3E1,5.2E1,2E0,1.04E2,2.08E2,8.8E1,7E0,3E0,6.6E1,9.8E1,1.87E2,2.8E2,5.7E1,1.6E1,1.08E2,1.53E2,3.6E1,1.2E1,3.6E1,5.1E1,1.08E2,4.3E1,1.43E2,5.01E2,5.9E1,1.73E2,5.6E1,3E0,1.06E2,1.5E2,3.4E1,3.4E1,1.6E1,4.74E2,1.55E2,1.1E2,9.4E1,2.5E1,5.5E1,5E1,8E0,2E0,1.44E2,5.5E1,9.7E1,4.5E1,5E0,1.3E1,2.23E2,2.26E2,8.3E1,3.17E2,5.8E1,3.5E1,6E0,4.6E1,1E0,1E0,8.1E1,2.3E1,1.94E2,1.4E1,5.9E1,2.9E1,1E0,6E0,1E0,2E0],"tree_param":{"num_deleted":"0","num_feature":"11","num_nodes":"123","size_leaf_vector":"1"}},{"base_weights":[5.209467E-3,-5.574554E-1,4.983633E-1,-1.1289352E0,-2.699859E-1,1.3605015E-1,9.2713547E-1,-1.5983856E0,-8.800012E-1,-5.2954364E-1,8.255152E-2,-2.3468119E-1,3.8603312E-1,5.833564E-1,1.2753747E0,-3.609881E-1,-1.5121133E0,-1.4323548E0,-6.932688E-1,-7.2050107E-1,2.6622283E-1,-7.226828E-2,9.289955E-1,-7.982859E-1,-3.01208E-2,2.075089E-1,1.0255245E0,2.0287254E-1,8.699671E-1,1.0790838E0,1.9206182E0,-1.7004452E0,-6.9116825E-1,-1.9031513E0,-5.003542E-1,-1.0224863E0,-3.8260943E-1,-1.2348874E0,-5.102071E-1,-7.9957485E-2,1.306502E0,-5.645907E-1,1.9066095E-1,7.05127E-1,3.0523942E0,-1.0070084E0,-2.061563E-1,-2.8703675E-1,5.523155E-1,1.4885809E-2,8.0180365E-1,4.729328E0,8.65858E-1,-1.4373034E-1,6.828726E-1,8.171207E-1,7.080096E-1,9.5493543E-1,2.0308316E0,2.4341228E0,1.4891492E0,-1.7846149E-1,2.7083246E-2,1.7708848E-1,-1.3049221E-1,-2.6595196E-1,-1.299276E-1,-1.3030069E-1,1.2988386E-1,-1.770824E-1,-8.02036E-2,-1.6651712E-1,-2.7595842E-2,-1.7476486E-1,-8.121376E-2,-8.2127176E-2,-1.8679254E-2,-1.1483313E-1,1.5299298E-2,1.1460316E0,8.2618795E-2,-8.926382E-2,5.833986E-3,-2.96798E-2,4.5402255E-2,4.098146E-2,2.0112653E-1,9.518385E-2,7.636411E-1,-1.15112E-1,8.812155E-3,-1.2479973E-1,9.7402735E-3,-7.068237E-2,2.0372229E-2,3.850239E-2,2.2907327E-1,-9.217542E-2,9.966229E-3,-1.1886283E-1,9.042712E-2,1.0501813E0,1.0548643E-1,4.631436E-2,1.7441107E-1,-1.12030864E-1,7.517568E-4,3.711086E-2,1.3294517E-1,5.7435907E-2,1.2643176E-1,7.062886E-2,1.4423501E-1,2.3702915E-1,-6.840014E-2,4.4002515E-1,2.1262729E-1,4.2021203E-1,1.2613676E-1],"categories":[],"categories_nodes":[],"categories_segments":[],"categories_sizes":[],"default_left":[0,0,0,0,0,0,0,0,0,0,0,0,0,0,0,0,0,0,0,0,0,0,0,0,0,0,0,0,0,0,0,0,0,0,0,0,0,0,0,0,0,0,0,0,0,0,0,0,0,0,0,0,0,0,0,0,0,0,0,0,0,0,0,0,0,0,0,0,0,0,0,0,0,0,0,0,0,0,0,0,0,0,0,0,0,0,0,0,0,0,0,0,0,0,0,0,0,0,0,0,0,0,0,0,0,0,0,0,0,0,0,0,0,0,0,0,0,0,0],"id":13,"left_children":[1,3,5,7,9,11,13,15,17,19,21,23,25,27,29,-1,31,33,35,37,39,41,43,45,47,49,51,53,55,57,59,61,63,65,67,69,71,73,75,77,79,81,83,85,87,89,91,93,95,97,99,101,103,105,107,109,-1,111,113,115,117,-1,-1,-1,-1,-1,-1,-1,-1,-1,-1,-1,-1,-1,-1,-1,-1,-1,-1,-1,-1,-1,-1,-1,-1,-1,-1,-1,-1,-1,-1,-1,-1,-1,-1,-1,-1,-1,-1,-1,-1,-1,-1,-1,-1,-1,-1,-1,-1,-1,-1,-1,-1,-1,-1,-1,-1,-1,-1],"loss_changes":[1.4667614E3,4.0531E2,4.3749414E2,9.512146E1,1.5047595E2,1.4170032E2,1.536914E2,4.3999207E1,5.4910156E1,1.4409561E2,9.153744E1,7.099533E1,1.0401956E2,7.081555E1,7.898706E1,0E0,4.1342346E1,5.87222E1,4.1234512E1,8.201358E1,6.636731E1,7.66102E1,4.9186783E1,2.0061287E1,6.794417E1,8.1837616E1,1.1358832E2,4.684795E1,1.15970764E2,5.631256E1,2.916632E1,3.748401E1,8.239888E1,3.765219E1,6.956635E1,3.1079071E1,2.8402433E1,4.6486786E1,5.457454E1,3.4769753E1,2.148745E2,4.2148346E1,4.9688644E1,3.7361916E1,8.9021194E1,1.9197777E1,1.4037009E1,6.5038475E1,3.9542355E1,4.304999E1,3.6766907E1,1.5860829E2,6.709975E1,2.4232113E1,2.3293076E1,3.9333282E1,0E0,5.206427E1,5.32296E1,3.0591858E1,4.5990707E1,0E0,0E0,0E0,0E0,0E0,0E0,0E0,0E0,0E0,0E0,0E0,0E0,0E0,0E0,0E0,0E0,0E0,0E0,0E0,0E0,0E0,0E0,0E0,0E0,0E0,0E0,0E0,0E0,0E0,0E0,0E0,0E0,0E0,0E0,0E0,0E0,0E0,0E0,0E0,0E0,0E0,0E0,0E0,0E0,0E0,0E0,0E0,0E0,0E0,0E0,0E0,0E0,0E0,0E0,0E0,0E0,0E0,0E0],"parents":[2147483647,0,0,1,1,2,2,3,3,4,4,5,5,6,6,7,7,8,8,9,9,10,10,11,11,12,12,13,13,14,14,16,16,17,17,18,18,19,19,20,20,21,21,22,22,23,23,24,24,25,25,26,26,27,27,28,28,29,29,30,30,31,31,32,32,33,33,34,34,35,35,36,36,37,37,38,38,39,39,40,40,41,41,42,42,43,43,44,44,45,45,46,46,47,47,48,48,49,49,50,50,51,51,52,52,53,53,54,54,55,55,57,57,58,58,59,59,60,60],"right_children":[2,4,6,8,10,12,14,16,18,20,22,24,26,28,30,-1,32,34,36,38,40,42,44,46,48,50,52,54,56,58,60,62,64,66,68,70,72,74,76,78,80,82,84,86,88,90,92,94,96,98,100,102,104,106,108,110,-1,112,114,116,118,-1,-1,-1,-1,-1,-1,-1,-1,-1,-1,-1,-1,-1,-1,-1,-1,-1,-1,-1,-1,-1,-1,-1,-1,-1,-1,-1,-1,-1,-1,-1,-1,-1,-1,-1,-1,-1,-1,-1,-1,-1,-1,-1,-1,-1,-1,-1,-1,-1,-1,-1,-1,-1,-1,-1,-1,-1,-1],"split_conditions":[-8.6279556E-2,-3.472692E-1,1.5657587E-1,-1.1267539E0,4.2292956E-1,2.7708095E-1,8.6748856E-1,-2.1947012E0,-4.0019363E-1,1.876928E0,1.3322144E0,-1.0190626E0,1.2460527E0,2.7708095E-1,1.0419537E0,-3.609881E-1,1.6227571E0,1.0648023E0,1.0290286E-1,-6.28988E-1,9.027086E-1,2.7708095E-1,1.3900666E0,1.3010195E0,1.3449776E0,1.3877257E0,-1.3758352E0,9.963177E-1,3.0025513E0,1.6681111E0,1.3900666E0,2.0260894E0,-1.3549594E0,-2.112526E-1,-4.3310434E-1,-2.5255087E-1,2.8424218E-1,3.2452422E-1,-8.666353E-1,-1.4735787E0,2.8424218E-1,-6.932229E-1,8.2502216E-1,1.6227571E0,-3.4639814E-1,2.069176E0,-2.5255087E-1,8.6748856E-1,1.5293118E0,